tree
version=v4
num_class=1
num_tree_per_iteration=1
label_index=0
max_feature_idx=8
objective=regression
feature_names=States Regions latitude longitude year month day dayofweek is_weekend
feature_infos=-1:0:1:2:3:4:5:6:7:8:9:10:11:12:13:14:15:16:17:18:19:20:21:22:23:24:25:26:27:28:29:30:31:32 -1:2:1:3:4:0 [8.900372741:33.450000000000003] [71.192400000000006:94.216667439999995] [2019:2020] [1:12] [1:12] [0:6] [0:1]
tree_sizes=2681 2696 2709 2708 2707 2703 2711 2712 2704 2700 2678 2684 2686 2689 2698 2691 2688 2689 2724 2673 2692 2682 2691 2682 2694 2705 2703 2737 2682 2726 2716 2729 2717 2735 2722 2699 2708 2717 2717 2695 2713 2715 2698 2716 2702 2720 2732 2721 2735 2707 2733 2723 2726 2722 2735 2706 2717 2745 2725 2748 2751 2753 2750 2743 2759 2755 2745 2751 2761 2725 2749 2729 2731 2738 2764 2743 2763 2740 2743 2753 2739 2729 2730 2729 2737 2754 2761 2743 2761 2733 2747 2774 2738 2751 2771 2740 2767 2733 2762 2741 2740 2732 2755 2729 2743 2722 2743 2755 2751 2743 2740 2745 2750 2744 2768 2747 2776 2750 2759 2763 2716 2732 2695 2733 2737 2747 2756 2754 2755 2732 2772 2796 2797 2775 2768 2745 2757 2762 2749 2771 2747 2742 2705 2760 2744 2753 2768 2752 2748 2760 2760 2759 2769 2766 2786 2745 2750 2753 2768 2760 2759 2755 2745 2755 2750 2768 2767 2779 2771 2762 2757 2770 2749 2754 2756 2757 2772 2759 2771 2761 2739 2754 2734 2758 2762 2747 2758 2744 2783 2739 2743 2753 2791 2770 2758 2782 2783 2780 2752 2763 2765 2773 2754 2775 2767 2766 2754 2764 2769 2759 2775 2779 2771 2762 2756 2763 2750 2755 2773 2749 2746 2745 2745 2743 2761 2774 2771 2778 2778 2770 2765 2742 2739 2769 2752 2740 2743 2759 2773 2729 2764 2781 2762 2777 2776 2782 2771 2761 2797 2730 2747 2768 2759 2749 2780 2766 2752 2745 2780 2734 2779 2769 2779 2780 2765 2784 2784 2767 2771 2760 2737 2736 2755 2767 2748 2749 2794 2768 2755 2765 2777 2772 2778 2771 2773 2744 2774 2767 2783 2757 2794 2779 2762 2770 2756 2771 2770 2782 2771 2788 2759 2778 2792 2785 2777 2781 2783 2771 2763 2766 2762 2766 2762 2771 2772 2766 2766 2768 2781 2750 2763 2749 2737 2793 2777 2747 2755 2779 2786 2772 2741 2749 2766 2747 2747 2759 2755 2764 2768 2761 2748 2753 2742 2761 2762 2768 2759 2786 2788 2757 2776 2763 2772 2770 2753 2776 2767 2774 2775 2761 2758 2769 2756 2767 2760 2750 2757 2774 2773 2764 2765 2752 2762 2768 2764 2759 2747 2746 2758 2763 2753 2778 2770 2769 2785 2773 2769 2766 2757 2800 2765 2769 2753 2783 2785 2767 2766 2766 2767 2767 2787 2771 2773 2789 2772 2779 2766 2761 2774 2769 2754 2743 2752 2771 2761 2783 2777 2790 2790 2801 2776 2775 2779 2762 2761 2787 2789 2787 2796 2779 2781 2771 2789 2797 2802 2765 2766 2783 2765 2776 2786 2779 2769 2789 2756 2781 2763 2768 2790 2769 2799 2774 2803 2790 2780 2756 2777 2784 2781 2734 2770 2766 2769 2770 2769 2756 2752 2754 2792 2787 2757 2780 2774 2785 2784 2784 2780 2770 2784 2786 2768 2784 2778 2777 2803 2750 2758 2765 2766 2774 2764 2768 2777 2781 2785 2764 2774 2763 2761 2758

Tree=0
num_leaves=31
num_cat=6
split_feature=0 0 0 0 0 0 3 6 3 3 3 6 6 3 3 3 5 5 6 6 6 6 6 6 3 3 3 3 6 4
split_gain=1.26124e+08 1.75289e+07 1.69066e+07 2.72956e+06 2.59435e+06 781508 385630 88232.2 87901.4 73893.6 72108.5 46580.4 37402.7 37309.5 34804.9 25203.3 24997.2 24482.3 112186 45612 38452.5 32730.8 27243.7 22053.9 21915.5 19527.3 18299.9 17830.5 15874.7 30897.2
threshold=0 1 2 3 4 5 78.310015620000016 7.5000000000000009 77.09329402500002 77.640004840000017 76.674999140000025 11.500000000000002 8.5000000000000018 76.055011150000013 77.198300535000016 78.794662795000008 11.500000000000002 7.5000000000000009 6.5000000000000009 5.5000000000000009 8.5000000000000018 1.5000000000000002 2.5000000000000004 2.5000000000000004 79.084670935000005 86.160001590000022 77.640004840000017 76.969994060000019 11.500000000000002 2019.5000000000002
decision_type=1 1 1 1 1 1 2 8 2 2 2 8 8 2 2 2 8 10 10 10 10 10 10 10 2 2 2 2 10 8
left_child=1 3 4 11 17 8 13 24 -4 -9 -7 23 -11 -3 -6 -8 -15 18 21 22 27 -2 -19 -1 -5 26 -10 -20 29 -14
right_child=2 6 5 7 14 10 15 9 25 12 -12 -13 28 16 -16 -17 -18 19 20 -21 -22 -23 -24 -25 -26 -27 -28 -29 -30 -31
leaf_value=117.26776846552336 104.83102944631858 108.72780040486822 100.05684059613009 112.96587556634098 101.45584774570345 98.541194835121303 106.64144587957739 114.29290407418443 99.18181744119974 115.13516153519936 98.023652495726495 119.73807195084453 112.01064602899993 107.77589304259288 101.98224181876195 107.2078911681792 108.35086463022674 104.07068148584652 108.39876839685881 103.60616240725935 105.57390438711275 103.97172998698841 106.31237452612942 118.89904121549512 112.02337948847259 99.070965624615283 99.657456013683912 106.53676847188119 114.52281014490569 113.32580618543157
leaf_weight=25 751 407 416 196 391 828 403 317 409 28 3596 257 49 297 1595 383 520 23 20 99 103 130 33 121 90 822 400 36 24 504
leaf_count=25 751 407 416 196 391 828 403 317 409 28 3596 257 49 297 1595 383 520 23 20 99 103 130 33 121 90 822 400 36 24 504
internal_value=102.987 110.932 100.002 114.838 102.99 98.5347 107.758 113.351 99.4255 113.675 98.1315 118.937 113.351 108.337 101.884 106.917 108.142 104.822 104.925 104.251 106.147 104.704 105.392 118.62 112.669 99.2426 99.417 107.202 113.264 113.209
internal_weight=13273 3621 9652 1611 3181 6471 2010 1208 2047 922 4424 403 605 1224 1986 786 817 1195 1040 155 159 881 56 146 286 1631 809 56 577 553
internal_count=13273 3621 9652 1611 3181 6471 2010 1208 2047 922 4424 403 605 1224 1986 786 817 1195 1040 155 159 881 56 146 286 1631 809 56 577 553
cat_boundaries=0 1 2 4 5 7 8
cat_threshold=1510162945 1208091136 21006504 1 131072 16779264 1 2147496964
is_linear=0
shrinkage=1


Tree=1
num_leaves=31
num_cat=6
split_feature=0 0 0 0 0 0 3 6 2 3 3 6 6 2 2 6 2 5 6 6 6 6 6 6 2 2 2 2 6 6
split_gain=1.13827e+08 1.58198e+07 1.52582e+07 2.46343e+06 2.3414e+06 705311 348031 79629.6 79331 66688.9 65077.9 42038.8 33756 33671.9 31411.4 23105.1 22746 22095.3 101248 41164.9 34703.4 29539.5 24587.4 19903.6 19778.7 17623.4 16515.7 16329.2 14689.4 14926.9
threshold=0 1 2 3 4 5 78.310015620000016 7.5000000000000009 32.48498699000001 77.640004840000017 76.674999140000025 11.500000000000002 8.5000000000000018 26.117706830000007 19.535330830000003 8.5000000000000018 16.802198500000003 7.5000000000000009 6.5000000000000009 5.5000000000000009 8.5000000000000018 1.5000000000000002 2.5000000000000004 2.5000000000000004 22.174560175000003 29.495200925000002 30.910011210000004 28.024993510000005 2.5000000000000004 1.5000000000000002
decision_type=1 1 1 1 1 1 2 8 2 2 2 8 8 2 2 8 2 10 10 10 10 10 10 10 2 2 2 2 10 10
left_child=1 3 4 11 17 8 13 24 25 -9 -7 23 -11 15 -6 -3 -8 18 21 22 27 -2 -19 -1 -5 -4 -27 -20 29 -26
right_child=2 6 5 7 14 10 16 9 -10 12 -12 -13 -14 -15 -16 -17 -18 19 20 -21 -22 -23 -24 -25 28 26 -28 -29 -30 -31
leaf_value=13.552611938476563 1.7377095044134174 4.4352311973840415 -3.7343512017651488 8.5704421997070312 -1.468713152804948 -4.2376333817191743 3.4576050514618752 10.726490222918876 -2.7977698330695815 11.52663495200021 -4.7292985969178538 15.899400103973509 9.748944966466631 5.4396419979723438 -0.96863876165617779 5.0408877626949593 3.9957281269541611 1.0153789403645888 2.8444115924835209 0.57408581102135203 2.4434407087784371 0.92137502569418683 3.1449872646367911 15.10232035739363 9.6133131163460881 -3.177185302734375 -3.6290419832709953 4.6263004680888526 9.743000829134056 7.9948095650508497
leaf_weight=25 751 213 822 90 391 828 403 317 416 28 3596 257 577 407 1595 604 383 23 20 99 103 130 33 121 28 400 409 36 139 29
leaf_count=25 751 213 822 90 391 828 403 317 416 28 3596 257 577 407 1595 604 383 23 20 99 103 130 33 121 28 400 409 36 139 29
internal_value=-0.013943 7.53354 -2.85027 11.2444 -0.0110827 -4.24379 4.51837 9.83155 -3.3975 10.139 -4.62682 15.1388 9.83122 5.06808 -1.06175 4.88299 3.71982 1.72936 1.82683 1.18692 2.98811 1.61725 2.27033 14.837 9.18405 -3.5713 -3.40563 3.98991 9.46581 8.78986
internal_weight=13273 3621 9652 1611 3181 6471 2010 1208 2047 922 4424 403 605 1224 1986 817 786 1195 1040 155 159 881 56 146 286 1631 809 56 196 57
internal_count=13273 3621 9652 1611 3181 6471 2010 1208 2047 922 4424 403 605 1224 1986 817 786 1195 1040 155 159 881 56 146 286 1631 809 56 196 57
cat_boundaries=0 1 2 4 5 7 8
cat_threshold=1510162945 1208091136 21006504 1 131072 16779264 1 2147496964
is_linear=0
shrinkage=0.05


Tree=2
num_leaves=31
num_cat=6
split_feature=0 0 0 0 0 0 3 6 2 3 3 6 6 2 2 7 2 5 6 6 6 6 6 2 2 2 2 6 4 6
split_gain=1.02729e+08 1.42774e+07 1.37705e+07 2.22325e+06 2.11311e+06 636543 314098 71865.7 71596.2 60186.8 58732.8 37940 30464.8 30388.8 28348.8 21018.7 20528.2 19941 91376 38725 31319.8 26659.4 17963 17850.3 15905.1 15204.1 14905.4 14326.9 27884.7 14056.7
threshold=0 1 2 3 4 5 78.310015620000016 7.5000000000000009 32.48498699000001 77.640004840000017 76.674999140000025 11.500000000000002 8.5000000000000018 26.117706830000007 19.535330830000003 1.0000000180025095e-35 16.802198500000003 7.5000000000000009 6.5000000000000009 3.5000000000000004 8.5000000000000018 1.5000000000000002 2.5000000000000004 22.174560175000003 29.495200925000002 31.309999715000004 30.910011210000004 11.500000000000002 2019.5000000000002 5.5000000000000009
decision_type=1 1 1 1 1 1 2 8 2 2 2 8 8 2 2 10 2 10 10 10 10 10 10 2 2 2 2 10 8 10
left_child=1 3 4 11 17 8 13 23 24 -9 -7 22 -11 15 -6 -3 -8 18 21 -19 25 -2 -1 29 -4 -20 -26 28 -14 -5
right_child=2 6 5 7 14 10 16 9 -10 12 -12 -13 27 -15 -16 -17 -18 19 20 -21 -22 -23 -24 -25 26 -27 -28 -29 -30 -31
leaf_value=12.874981323242189 1.6508239960612929 4.8175070140824658 -3.5476335915335775 8.5727676266529524 -1.3952774360051849 -4.0257517441459321 3.2847247930673458 10.190165845227167 -2.6578814442341145 10.95030336380005 -4.4928336665415527 15.104429495844862 8.0708977757668006 5.1676597595214844 -0.92020680669692223 4.2788621233838073 3.7959416795337173 2.5389426054181281 3.1763434449831647 0.68502778260479291 2.3212686801998359 0.87530628772882313 14.347204230442522 8.9925226834355581 -3.0183260326385497 4.8957464319467547 -3.4475898845271553 10.457453759511312 9.3203001764085567 7.2356535023656399
leaf_weight=25 751 546 822 61 391 828 403 317 416 28 3596 257 49 407 1595 271 383 37 36 118 103 130 121 196 400 20 409 24 504 29
leaf_count=25 751 546 822 61 391 828 403 317 416 28 3596 257 49 407 1595 271 383 37 36 118 103 130 121 196 400 20 409 24 504 29
internal_value=-0.0132459 7.15686 -2.70776 10.6822 -0.0105285 -4.0316 4.29245 9.33997 -3.22763 9.63208 -4.39548 14.3819 9.33966 4.81468 -1.00866 4.63884 3.53383 1.64289 1.73549 1.12758 2.8387 1.53639 14.0951 8.72485 -3.39273 3.79042 -3.23535 9.2615 9.20959 8.14192
internal_weight=13273 3621 9652 1611 3181 6471 2010 1208 2047 922 4424 403 605 1224 1986 817 786 1195 1040 155 159 881 146 286 1631 56 809 577 553 90
internal_count=13273 3621 9652 1611 3181 6471 2010 1208 2047 922 4424 403 605 1224 1986 817 786 1195 1040 155 159 881 146 286 1631 56 809 577 553 90
cat_boundaries=0 1 2 4 5 7 8
cat_threshold=1510162945 1208091136 21006504 1 131072 16779264 1 2147496964
is_linear=0
shrinkage=0.05


Tree=3
num_leaves=31
num_cat=6
split_feature=0 0 0 0 0 0 3 6 2 3 2 6 6 2 2 6 2 6 5 7 6 2 2 2 6 6 6 6 7 5
split_gain=9.27125e+07 1.28853e+07 1.24279e+07 2.00648e+06 1.90708e+06 574480 283473 64858.8 64615.6 54318.5 53832.4 34240.8 27494.4 27425.9 25584.8 19494.8 18526.7 18107 45349.6 17898.4 16211.7 16109.9 14354.4 13452.1 13321.2 13257.2 13471.5 12930 17412.8 12689.4
threshold=0 1 2 3 4 5 78.310015620000016 7.5000000000000009 32.48498699000001 77.640004840000017 23.145394715000005 11.500000000000002 8.5000000000000018 26.117706830000007 19.535330830000003 8.5000000000000018 16.802198500000003 7.5000000000000009 4.5000000000000009 5.5000000000000009 2.5000000000000004 22.174560175000003 29.495200925000002 30.910011210000004 1.5000000000000002 2.5000000000000004 1.5000000000000002 11.500000000000002 4.5000000000000009 7.5000000000000009
decision_type=1 1 1 1 1 1 2 8 2 2 2 8 8 2 2 8 2 10 10 10 10 2 2 2 10 10 10 10 8 10
left_child=1 3 4 11 17 8 13 21 22 -9 -7 20 -11 15 -6 -3 -8 19 -19 24 -1 -5 -4 -24 -2 26 -23 28 -14 -18
right_child=2 6 5 7 14 10 16 9 -10 12 -12 -13 27 -15 -16 -17 29 18 -20 -21 -22 25 23 -25 -26 -27 -28 -29 -30 -31
leaf_value=12.231231750488282 1.5485687493340456 3.9956069301551498 -3.3702520071154964 7.7348238542344836 -1.3255136104495935 -3.9036076894696401 3.1204886197452217 9.6806574252877695 -2.5249873129221108 10.402787930624825 -4.293196101064864 14.349208059941748 7.8390596230824787 4.9092767021872783 -0.87419647205061912 4.551936615381809 3.7098302897450495 2.8109221919890377 1.2695102213463765 2.6165222155697205 13.629844161104566 8.6830213819231314 -2.8674097404479983 -3.2752103744917225 1.1032041033178017 8.8062249053296426 7.1454433178079544 9.9345814069112137 8.8356142342444706 2.8072947025299073
leaf_weight=25 754 213 822 90 391 1227 403 317 416 28 3197 257 48 407 1595 604 339 93 98 34 121 28 400 409 216 139 29 24 505 44
leaf_count=25 754 213 822 90 391 1227 403 317 416 28 3197 257 48 407 1595 604 339 93 98 34 121 28 400 409 216 139 29 24 505 44
internal_value=-0.0125835 6.79902 -2.57237 10.1481 -0.0100021 -3.83002 4.07783 8.87297 -3.06625 9.15047 -4.1757 13.6628 8.87267 4.57395 -0.958226 4.4069 3.35714 1.56075 2.02004 1.48892 13.3904 8.28861 -3.2231 -3.07358 1.44939 8.5429 7.90074 8.79842 8.74911 3.60614
internal_weight=13273 3621 9652 1611 3181 6471 2010 1208 2047 922 4424 403 605 1224 1986 817 786 1195 191 1004 146 286 1631 809 970 196 57 577 553 383
internal_count=13273 3621 9652 1611 3181 6471 2010 1208 2047 922 4424 403 605 1224 1986 817 786 1195 191 1004 146 286 1631 809 970 196 57 577 553 383
cat_boundaries=0 1 2 4 5 7 8
cat_threshold=1510162945 1208091136 21006504 1 131072 16779264 1 2147496964
is_linear=0
shrinkage=0.05


Tree=4
num_leaves=31
num_cat=6
split_feature=0 0 0 0 0 0 3 6 2 3 3 6 6 2 2 6 6 5 6 6 6 6 2 6 2 6 2 2 6 6
split_gain=8.3673e+07 1.1629e+07 1.12162e+07 1.81085e+06 1.72114e+06 518468 255835 58535.1 58315.6 49022.5 48949.6 30902.4 24813.7 24751.9 23090.3 18545.2 24581.2 16976.1 77966.9 34383.3 29311.3 23170.4 16720.4 14631 14539.2 14491.9 13820.4 12954.8 12686.1 12612.7
threshold=0 1 2 3 4 5 78.310015620000016 7.5000000000000009 32.48498699000001 77.640004840000017 76.674999140000025 11.500000000000002 8.5000000000000018 26.117706830000007 19.535330830000003 4.5000000000000009 2.5000000000000004 7.5000000000000009 6.5000000000000009 3.5000000000000004 8.5000000000000018 1.5000000000000002 16.802198500000003 2.5000000000000004 22.174560175000003 1.5000000000000002 28.024993510000005 29.495200925000002 5.5000000000000009 4.5000000000000009
decision_type=1 1 1 1 1 1 2 8 2 2 2 8 8 2 2 10 8 10 10 10 10 10 2 10 2 10 2 2 10 10
left_child=1 3 4 11 17 8 13 24 27 -9 -7 23 -11 15 -6 16 25 18 21 -19 26 -2 -8 -1 28 -3 -20 -4 -5 -25
right_child=2 6 5 7 14 10 22 9 -10 12 -12 -13 -14 -15 -16 -17 -18 19 20 -21 -22 -23 -24 29 -26 -27 -28 -29 -30 -31
leaf_value=11.619670349121094 1.4906410832578112 4.1461076909845529 -3.2017393502005698 7.7573882681424511 -1.259237902548612 -3.6292837723441744 2.9644641725951923 9.1966249249334968 -2.3987379977336296 9.8826484816414979 -4.0556935249897208 13.631748448828317 8.3585016743149261 4.6638130575125576 -0.8304866500447583 3.790437150770618 4.4220312944818492 2.3368640399865206 2.4537839087843896 0.58996466732883857 2.0863586097630193 0.76765008083043196 3.4258374429558338 13.974620405832926 8.1157516138894223 2.3694892863432568 4.0930818107393057 -2.9198995286071554 6.4871297375909212 12.694429810514157
leaf_weight=25 751 22 822 61 391 828 403 317 416 28 3596 257 577 407 1595 217 554 37 20 118 103 130 383 24 196 24 36 809 29 97
leaf_count=25 751 22 822 61 391 828 403 317 416 28 3596 257 577 407 1595 217 554 37 20 118 103 130 383 24 196 24 36 809 29 97
internal_value=-0.0119543 6.45907 -2.44375 9.64066 -0.00950201 -3.63852 3.87394 8.42932 -2.91293 8.69295 -3.96692 12.9797 8.42904 4.34525 -0.910315 4.18655 4.32981 1.48271 1.56787 1.00697 2.58693 1.38396 3.18928 12.7208 7.87418 3.21918 3.50762 -3.06194 7.34808 12.9484
internal_weight=13273 3621 9652 1611 3181 6471 2010 1208 2047 922 4424 403 605 1224 1986 817 600 1195 1040 155 159 881 786 146 286 46 56 1631 90 121
internal_count=13273 3621 9652 1611 3181 6471 2010 1208 2047 922 4424 403 605 1224 1986 817 600 1195 1040 155 159 881 786 146 286 46 56 1631 90 121
cat_boundaries=0 1 2 4 5 7 8
cat_threshold=1510162945 1208091136 21006504 1 131072 16779264 1 2147496964
is_linear=0
shrinkage=0.05


Tree=5
num_leaves=31
num_cat=6
split_feature=0 0 0 0 0 0 3 2 2 6 2 6 2 2 6 6 6 6 2 6 6 6 4 6 2 6 5 6 5 2
split_gain=7.70262e+07 1.08406e+07 1.01965e+07 1.61835e+06 1.48462e+06 460695 264536 76834 51808.7 49103.2 44408.5 32951.8 31396.3 22815 21857.8 19350.9 18943.1 25512.4 18647.7 18518.8 20694.5 14676.7 14109.7 13584.4 15101.8 13508.2 12396.8 12630.3 11993.4 11860.1
threshold=0 1 2 3 4 5 78.310015620000016 22.174560175000003 32.48498699000001 7.5000000000000009 23.145394715000005 7.5000000000000009 26.117706830000007 19.535330830000003 4.5000000000000009 7.5000000000000009 4.5000000000000009 2.5000000000000004 16.802198500000003 11.500000000000002 10.500000000000002 2.5000000000000004 2019.5000000000002 8.5000000000000018 27.466655495000001 11.500000000000002 4.5000000000000009 2.5000000000000004 7.5000000000000009 29.495200925000002
decision_type=1 1 1 1 1 1 2 2 2 8 2 8 2 2 10 8 10 8 2 10 10 10 10 8 2 10 10 10 8 2
left_child=1 3 4 11 25 8 12 15 29 26 -7 -1 16 -6 18 -5 17 -3 -8 20 23 -20 -17 -11 -25 -2 -9 -28 -19 -4
right_child=2 6 5 7 13 10 14 9 -10 19 -12 -13 -14 -15 -16 22 -18 28 21 -21 -22 -23 -24 24 -26 -27 27 -29 -30 -31
leaf_value=11.874804744314641 1.344399498560094 3.0440205970158178 -3.0411868471016916 6.9578666832136067 -1.188957281256803 -3.5191125401612342 2.9050175906796207 8.17631179636175 -2.2694399192291184 9.7470872243245452 -3.8747863618032259 12.943905538416988 4.5418303620992324 -0.76565298750659672 2.6078795441337252 7.6926843180608913 3.5957139406564105 5.1159577730539683 3.3485370051816825 9.9007800238473092 7.3052146021525068 4.5509577683040074 9.0331761678059888 8.8599877578624788 8.3369365263676301 2.2787865751981733 6.4626992906842915 7.6985777166825304 4.1827182284268467 -2.7694050457323849
leaf_weight=94 1172 48 815 92 397 1206 304 88 397 27 3223 309 404 1606 230 301 212 37 271 28 30 28 21 276 276 40 28 79 495 791
leaf_count=94 1172 48 815 92 397 1206 304 88 397 27 3223 309 404 1606 230 301 212 37 271 28 30 28 21 276 276 40 28 79 495 791
internal_value=0.0344575 6.1813 -2.31309 9.20782 -0.0108115 -3.46206 3.6885 8.08907 -2.76708 8.43096 -3.76943 12.3872 4.18314 -0.845333 3.02259 7.59739 4.00018 4.14802 3.18077 8.64349 8.58568 3.46114 7.78011 8.65202 8.59846 1.36398 7.73671 7.37517 4.24762 -2.90733
internal_weight=13325 3678 9647 1649 3215 6432 2029 1246 2003 832 4429 403 1196 2003 833 414 792 580 603 637 609 299 322 579 552 1212 195 107 532 1606
internal_count=13325 3678 9647 1649 3215 6432 2029 1246 2003 832 4429 403 1196 2003 833 414 792 580 603 637 609 299 322 579 552 1212 195 107 532 1606
cat_boundaries=0 1 2 4 5 7 8
cat_threshold=1510162945 1208091136 21006504 1 131072 16779264 1 2147496964
is_linear=0
shrinkage=0.05


Tree=6
num_leaves=31
num_cat=6
split_feature=0 0 0 0 0 0 3 2 2 6 6 2 2 2 6 6 6 6 2 6 6 2 5 6 6 6 6 6 4 6
split_gain=6.95162e+07 9.7836e+06 9.20238e+06 1.46056e+06 1.33987e+06 417035 238743 69342.6 61269.7 44315.7 29738.9 28335.1 21940 20590.5 19726.7 17649 17096.2 23025 16829.6 16713.2 18676.8 14146.2 13425.6 52951.4 44926.3 31951.4 23046.5 19325.1 16925.8 13245.7
threshold=0 1 2 3 4 5 78.310015620000016 22.174560175000003 32.48498699000001 7.5000000000000009 7.5000000000000009 26.117706830000007 29.495200925000002 19.535330830000003 4.5000000000000009 8.5000000000000018 4.5000000000000009 2.5000000000000004 16.802198500000003 11.500000000000002 10.500000000000002 23.145394715000005 7.5000000000000009 6.5000000000000009 8.5000000000000018 3.5000000000000004 11.500000000000002 1.5000000000000002 2019.5000000000002 2.5000000000000004
decision_type=1 1 1 1 1 1 2 2 2 8 8 2 2 2 10 8 10 8 2 10 10 2 10 10 10 10 10 10 10 10
left_child=1 3 4 10 22 8 11 15 12 -9 -1 16 -4 -6 18 -5 17 -3 -8 20 -11 -7 23 27 -25 -24 28 -2 -26 -20
right_child=2 6 5 7 13 21 14 9 -10 19 -12 -13 -14 -15 -16 -17 -18 -19 29 -21 -22 -23 25 24 26 -27 -28 -29 -30 -31
leaf_value=11.281064674702098 1.3172600839310327 2.8918195724487306 -2.969348288917856 6.6574837766374859 -1.1295094196982587 -3.4469608467603119 2.7597666236915086 7.3498755958752753 -2.1559679338853965 8.2194238117527672 12.296710185325647 4.3147390662295981 -2.6309347806175802 -0.72737030888076037 2.47748556137085 7.4078213021978989 3.4159282983474015 4.0352428528403204 3.181110219322008 9.4057408877781459 6.9399536895751952 -3.6810470429555693 2.1457926458483074 3.3495642747197838 0.49003153602744254 0.4854280666371838 2.8243218779563906 0.65971253426987264 1.9828821751015153 4.3234099183763774
leaf_weight=94 760 48 1214 105 397 807 304 195 397 579 309 404 791 1606 230 309 212 532 271 28 30 3223 38 56 43 122 28 131 34 28
leaf_count=94 760 48 1214 105 397 807 304 195 397 579 309 404 791 1606 230 309 212 532 271 28 30 3223 38 56 43 122 28 131 34 28
internal_value=0.0327347 5.87223 -2.19743 8.74743 -0.0102709 -3.28896 3.50408 7.68462 -2.71218 8.00941 11.7678 3.97399 -2.83584 -0.803066 2.87146 7.21752 3.80017 3.94061 3.02173 8.21131 8.1564 -3.62518 1.29578 1.37137 2.20588 0.879765 1.59591 1.22058 1.14921 3.28808
internal_weight=13325 3678 9647 1649 3215 6432 2029 1246 2402 832 403 1196 2005 2003 833 414 792 580 603 637 609 4030 1212 1052 161 160 105 891 77 299
internal_count=13325 3678 9647 1649 3215 6432 2029 1246 2402 832 403 1196 2005 2003 833 414 792 580 603 637 609 4030 1212 1052 161 160 105 891 77 299
cat_boundaries=0 1 2 4 5 7 8
cat_threshold=1510162945 1208091136 21006504 1 131072 16779264 1 2147497028
is_linear=0
shrinkage=0.05


Tree=7
num_leaves=31
num_cat=6
split_feature=0 0 0 0 0 0 3 2 2 6 3 6 2 2 6 6 6 6 2 6 6 6 7 5 6 6 6 6 6 4
split_gain=6.27383e+07 8.8297e+06 8.30515e+06 1.31816e+06 1.20923e+06 377608 215466 62581.7 41900.6 39994.8 35715.7 28001.1 25572.5 18583 17803.3 15928.2 15429.3 20780 15188.7 15083.7 16855.8 13371.7 13182.9 12116.6 47788.7 40546 28836.2 20799.5 17440.9 15275.5
threshold=0 1 2 3 4 5 78.310015620000016 22.174560175000003 32.48498699000001 7.5000000000000009 76.674999140000025 2.5000000000000004 26.117706830000007 19.535330830000003 4.5000000000000009 8.5000000000000018 4.5000000000000009 2.5000000000000004 16.802198500000003 11.500000000000002 10.500000000000002 4.5000000000000009 1.5000000000000002 7.5000000000000009 6.5000000000000009 8.5000000000000018 3.5000000000000004 11.500000000000002 1.5000000000000002 2019.5000000000002
decision_type=1 1 1 1 1 1 2 2 2 8 2 8 2 2 10 8 10 8 2 10 10 10 8 10 10 10 10 10 10 10
left_child=1 3 4 11 23 8 12 15 -4 -9 -7 -1 16 -6 18 -5 17 -3 -8 20 22 -13 -11 24 28 -26 -25 29 -2 -27
right_child=2 6 5 7 13 10 14 9 -10 19 -12 21 -14 -15 -16 -17 -18 -19 -20 -21 -22 -23 -24 26 25 27 -28 -29 -30 -31
leaf_value=9.7223932786421354 1.2513970648806152 2.7472285191218062 -2.6218268711569896 6.3246094894409186 -1.0730339600397298 -3.1095226389472521 2.6217782400156326 6.9823818598038123 -2.0481695482652795 8.9814836419146999 -3.477347598610367 11.734873665400915 4.0990019654283429 -0.69100179047176469 2.3536112762534098 7.0374302095579866 3.2451318292122973 3.8334805756583252 3.1236772793989918 8.9354538372584766 6.5929560216267902 11.063774407264031 7.7599276592405575 2.0385030413144514 3.1820860530648911 0.46552996178006023 0.46115665651979998 2.6831056986536304 0.62672690771776074 1.8837380623116216
leaf_weight=22 760 48 1606 105 397 807 304 195 397 23 3622 280 404 1606 230 309 212 532 299 28 30 101 556 38 56 43 122 28 131 34
leaf_count=22 760 48 1606 105 397 807 304 195 397 23 3622 280 404 1606 230 309 212 532 299 28 30 101 556 38 56 43 122 28 131 34
internal_value=0.0310979 5.57862 -2.08756 8.31006 -0.00975736 -3.12451 3.32887 7.30039 -2.49567 7.60894 -3.40264 11.1794 3.77529 -0.762913 2.72789 6.85664 3.61016 3.74358 2.87065 7.80075 7.74858 11.557 7.80845 1.23099 1.30281 2.09558 0.835776 1.51611 1.15955 1.09175
internal_weight=13325 3678 9647 1649 3215 6432 2029 1246 2003 832 4429 403 1196 2003 833 414 792 580 603 637 609 381 579 1212 1052 161 160 105 891 77
internal_count=13325 3678 9647 1649 3215 6432 2029 1246 2003 832 4429 403 1196 2003 833 414 792 580 603 637 609 381 579 1212 1052 161 160 105 891 77
cat_boundaries=0 1 2 4 5 7 8
cat_threshold=1510162945 1208091136 21006504 1 131072 16779264 1 2147496964
is_linear=0
shrinkage=0.05


Tree=8
num_leaves=31
num_cat=6
split_feature=0 0 0 0 0 0 3 2 2 6 6 2 2 2 6 5 2 6 6 6 2 6 6 2 2 6 5 6 6 6
split_gain=5.66214e+07 7.9688e+06 7.4954e+06 1.18964e+06 1.09133e+06 341320 194458 56480 49702.8 36430 25271 23079.2 18825.9 16771.1 16067.5 15631.3 26050.7 14762.4 13924.9 18754 13707.8 12068 11954.3 11721.7 11534.8 11313.7 10935.2 43129.3 36592.7 26024.6
threshold=0 1 2 3 4 5 78.310015620000016 22.174560175000003 32.48498699000001 6.5000000000000009 2.5000000000000004 26.117706830000007 29.495200925000002 19.535330830000003 4.5000000000000009 4.5000000000000009 27.466655495000001 2.5000000000000004 4.5000000000000009 2.5000000000000004 16.802198500000003 4.5000000000000009 2.5000000000000004 23.145394715000005 30.910011210000004 7.5000000000000009 7.5000000000000009 6.5000000000000009 8.5000000000000018 3.5000000000000004
decision_type=1 1 1 1 1 1 2 2 2 8 8 2 2 2 10 8 2 8 10 8 2 10 10 2 2 10 10 10 10 10
left_child=1 3 4 10 26 8 11 17 12 -9 -1 18 -4 -6 20 16 -11 -5 19 -3 -8 -12 -22 -7 -14 -23 27 -2 -29 -28
right_child=2 6 5 7 13 23 14 9 -10 15 21 -13 24 -15 -16 -17 -18 -19 -20 -21 22 25 -24 -25 -26 -27 29 28 -30 -31
leaf_value=9.2362734707919039 1.1015767152570648 2.6098671540617944 -2.6817750926072752 5.4052404812404085 -1.0193822516602293 -3.1100436223631607 2.4906894514435218 6.5632847554755926 -1.9457611307389191 7.1627031239596279 11.148129896436419 3.8940519900642117 -2.1809485381057776 -0.65645169683385318 2.2359307258025463 7.2993068286468246 8.8932327980218933 6.5942246614960203 3.0828752268035462 3.6418065388623932 2.8658708790621321 9.9433544727081955 3.9510557651519775 -3.3231273347533268 -2.5628877502126794 11.004286250361691 1.9365778753631995 3.0229817509651187 1.4403071325449717 0.43809882087297131
leaf_weight=22 891 48 1214 28 397 807 304 165 397 44 280 404 403 1606 230 580 43 386 212 532 271 47 28 3223 388 54 38 56 105 122
leaf_count=22 891 48 1214 28 397 807 304 165 397 44 280 404 403 1606 230 580 43 386 212 532 271 47 28 3223 388 54 38 56 105 122
internal_value=0.029543 5.29969 -1.98318 7.89456 -0.00926948 -2.96829 3.16243 6.93537 -2.44671 7.2285 10.6204 3.58652 -2.5581 -0.724767 2.59149 7.39305 8.01802 6.51381 3.42965 3.5564 2.72711 10.9791 2.96749 -3.27234 -2.3683 10.5106 1.16945 1.23767 1.9908 0.793988
internal_weight=13325 3678 9647 1649 3215 6432 2029 1246 2402 832 403 1196 2005 2003 833 667 87 414 792 580 603 381 299 4030 791 101 1212 1052 161 160
internal_count=13325 3678 9647 1649 3215 6432 2029 1246 2402 832 403 1196 2005 2003 833 667 87 414 792 580 603 381 299 4030 791 101 1212 1052 161 160
cat_boundaries=0 1 2 4 5 7 8
cat_threshold=1510162945 1208091136 21006504 1 131072 16779264 1 2147497028
is_linear=0
shrinkage=0.05


Tree=9
num_leaves=31
num_cat=6
split_feature=0 0 0 0 0 0 3 2 2 6 2 6 6 2 6 6 2 6 4 6 6 6 2 6 2 6 6 6 6 6
split_gain=5.11008e+07 7.19184e+06 6.7646e+06 1.07365e+06 984929 309493 175498 50973.2 33887.2 33180.5 29165.5 22807 21303.7 20813.9 20344.3 17096.2 15135.9 14500.9 14104.8 13184.8 15591.3 12640.4 12371.3 11692.7 13860.3 10891.4 10788.7 10210.6 10086.4 9325.46
threshold=0 1 2 3 4 5 78.310015620000016 22.174560175000003 32.48498699000001 7.5000000000000009 23.145394715000005 2.5000000000000004 2.5000000000000004 26.117706830000007 1.5000000000000002 4.5000000000000009 19.535330830000003 4.5000000000000009 2019.5000000000002 11.500000000000002 10.500000000000002 7.5000000000000009 16.802198500000003 8.5000000000000018 27.466655495000001 4.5000000000000009 2.5000000000000004 7.5000000000000009 11.500000000000002 7.5000000000000009
decision_type=1 1 1 1 1 1 2 2 2 8 2 8 8 2 10 10 2 10 8 10 10 10 2 8 2 10 10 10 10 10
left_child=1 3 4 11 28 8 12 18 -4 -9 -7 -1 14 15 -3 -14 -6 22 -5 20 23 -20 -8 -11 -25 -13 -24 -27 -2 -19
right_child=2 6 5 7 16 10 17 9 -10 19 -12 25 13 -15 -16 -17 -18 29 21 -21 -22 -23 26 24 -26 27 -28 -29 -30 -31
leaf_value=8.774460116299716 1.0934920821046463 3.4259076582418908 -2.364366584222017 5.6906395138434647 -0.96841313058242984 -2.8687312363392086 2.3661549660475241 6.2963773497557032 -1.8484730074327598 8.0665403295446332 -3.156970938784049 10.590723312922888 3.4597163583663177 3.7644435527232982 1.7787712511263398 2.9287315614029485 -0.62362913697329381 1.741180003450272 6.2726851420120084 8.102652951649258 5.8815684890747075 7.5434783390590132 2.7225772288892545 7.2514346005260082 6.7503439200961068 9.4461872587812703 3.7535029036658152 10.454071991531938 1.9009062092565001 2.3888230916331796
leaf_weight=22 1172 37 1606 106 397 1206 304 195 397 27 3223 280 532 377 38 212 1606 94 287 28 30 21 271 276 276 47 28 54 40 136
leaf_count=22 1172 37 1606 106 397 1206 304 195 397 27 3223 280 532 377 38 212 1606 94 287 28 30 21 271 276 276 47 28 54 40 136
internal_value=0.0280659 5.03471 -1.88402 7.49983 -0.00880603 -2.81987 3.00431 6.5886 -2.25088 6.86707 -3.07155 10.0894 3.4072 3.46178 2.59136 3.30841 -0.688529 2.46192 6.18812 7.04177 6.993 6.35933 2.59076 7.05058 7.00089 10.4302 2.81912 9.98506 1.11097 2.12413
internal_weight=13325 3678 9647 1649 3215 6432 2029 1246 2003 832 4429 403 1196 1121 75 744 2003 833 414 637 609 308 603 579 552 381 299 101 1212 230
internal_count=13325 3678 9647 1649 3215 6432 2029 1246 2003 832 4429 403 1196 1121 75 744 2003 833 414 637 609 308 603 579 552 381 299 101 1212 230
cat_boundaries=0 1 2 4 5 7 8
cat_threshold=1510162945 1208091136 21006504 1 131072 16779264 1 2147496964
is_linear=0
shrinkage=0.05


Tree=10
num_leaves=31
num_cat=6
split_feature=0 0 0 0 0 0 3 6 2 6 3 3 6 6 6 4 6 3 6 6 6 6 6 6 2 4 6 2 6 4
split_gain=4.56199e+07 6.54596e+06 6.09902e+06 1.00502e+06 952404 276518 158872 55321.8 30208 26605.1 26159.5 23734.3 23641.5 16120.5 14733.7 42138.7 33631.6 13885.3 13377.1 13091.7 23562.2 19239.5 12124 23160 11440.8 10547.3 10878.5 9372.49 9354.56 8455.32
threshold=0 1 2 3 4 5 78.310015620000016 7.5000000000000009 32.48498699000001 11.500000000000002 76.674999140000025 77.640004840000017 7.5000000000000009 4.5000000000000009 2.5000000000000004 2019.5000000000002 1.5000000000000002 77.640004840000017 8.5000000000000018 4.5000000000000009 2.5000000000000004 1.5000000000000002 5.5000000000000009 6.5000000000000009 19.535330830000003 2019.5000000000002 11.500000000000002 20.783484620000007 1.5000000000000002 2019.5000000000002
decision_type=1 1 1 1 1 1 2 8 2 8 2 2 8 8 10 10 10 2 8 10 10 10 10 10 2 10 8 2 10 10
left_child=1 3 4 9 13 8 12 14 -4 -1 -7 -9 19 28 15 16 -5 -16 -13 20 21 -3 29 -24 -6 26 -20 -21 -2 -19
right_child=2 6 5 7 24 10 -8 11 -10 -11 -12 18 -14 -15 17 -17 -18 22 25 27 -22 -23 23 -25 -26 -27 -28 -29 -30 -31
leaf_value=9.3235191035915062 1.2800778777191515 3.3296651735538392 -2.2494673900205417 5.5357987948826386 -0.91601426971768873 -2.6668319322103877 2.3099231959541244 6.8568372852557546 -1.7619889585277702 10.16329835011409 -2.9824336410263985 7.4258506774902351 3.3380065221505166 1.1607253140600806 6.495285846165249 6.8162718582153321 3.038474647815411 6.3718286514282232 5.5277673537914573 1.8502001809519393 3.7952440950605606 1.8070516538761912 3.9707535230196442 5.9798096537590029 -0.62143361384017415 7.1498722314834602 6.2871411339300858 2.7459670116613202 0.37011326478032225 5.294624046043114
leaf_weight=148 38 41 1626 28 412 803 802 302 395 260 3601 26 933 1063 70 25 26 56 52 43 72 42 26 32 1648 32 507 91 110 27
leaf_count=148 38 41 1626 28 412 803 802 302 395 260 3601 26 933 1063 70 25 26 56 52 43 72 42 26 32 1648 32 507 91 110 27
internal_value=0.00842265 4.7728 -1.78376 7.15639 -0.023869 -2.6783 2.84269 6.25193 -2.14358 9.62282 -2.91826 6.49364 3.21561 1.08371 5.70155 5.11911 4.33338 5.91962 6.31587 2.82046 3.13335 2.55919 5.63384 5.0792 -0.677063 6.26704 6.2165 2.45852 0.603753 6.02141
internal_weight=13337 3641 9696 1617 3271 6425 2024 1209 2021 408 4404 919 1222 1211 290 79 54 211 617 289 155 83 141 58 2060 591 559 134 148 83
internal_count=13337 3641 9696 1617 3271 6425 2024 1209 2021 408 4404 919 1222 1211 290 79 54 211 617 289 155 83 141 58 2060 591 559 134 148 83
cat_boundaries=0 1 2 4 5 7 8
cat_threshold=1510162945 1208091136 21006504 1 131072 16779264 1 2147496964
is_linear=0
shrinkage=0.05


Tree=11
num_leaves=31
num_cat=6
split_feature=0 0 0 0 0 0 3 6 2 6 2 6 5 6 2 6 6 6 6 2 6 4 6 6 2 5 6 6 6 2
split_gain=4.11719e+07 5.90773e+06 5.50436e+06 907032 859545 250772 143382 49927.9 36894.7 24011.1 21840.3 21336.4 17720.4 44758.4 21666.9 20581 16327.3 14841.4 13804.2 13685.8 13297.2 38030.2 30352.5 12853.2 23102.1 15420.4 11815.2 21264.9 17363.7 11400.6
threshold=0 1 2 3 4 5 78.310015620000016 7.5000000000000009 29.495200925000002 11.500000000000002 22.174560175000003 7.5000000000000009 7.5000000000000009 6.5000000000000009 31.309999715000004 1.5000000000000002 5.5000000000000009 2.5000000000000004 8.5000000000000018 32.48498699000001 2.5000000000000004 2019.5000000000002 1.5000000000000002 5.5000000000000009 22.174560175000003 7.5000000000000009 4.5000000000000009 2.5000000000000004 1.5000000000000002 30.910011210000004
decision_type=1 1 1 1 1 1 2 8 2 8 2 8 10 10 2 10 10 10 10 2 10 10 10 10 2 10 10 10 10 2
left_child=1 3 4 9 12 8 11 20 -4 -1 -9 26 13 15 -15 -2 17 -14 -16 29 21 22 -5 -22 -25 -26 27 28 -3 -10
right_child=2 6 5 7 -6 -7 -8 10 19 -11 -12 -13 16 14 18 -17 -18 -19 -20 -21 23 -23 -24 24 25 -27 -28 -29 -30 -31
leaf_value=8.8573432381088661 1.0673988669957948 3.163181951569348 -2.3053420388914607 5.2590086936950691 -0.64320989523710603 -2.8079201485369949 2.1944270428465193 5.8264865270324506 -1.8435123586889561 9.6551333603492164 6.3424429316794289 3.1711061500593831 0.18774544778703289 1.4537731395532256 3.7043028402328488 0.38633541233837604 0.1370647978813698 1.8450395438926561 2.0738912657306003 -1.6738894798182233 5.9569537162780763 6.475458335876465 2.8865508959843567 3.9460304719430432 6.346520722878946 4.7390511932373043 2.3355934844644213 3.6054819199774002 1.7166990513957683 -2.2159559492881482
leaf_weight=148 756 41 1214 28 2060 3994 802 309 406 260 610 933 22 115 20 130 96 35 37 395 122 25 26 27 37 25 134 72 42 416
leaf_count=148 756 41 1214 28 2060 3994 802 309 406 260 610 933 22 115 20 130 96 35 37 395 122 25 26 27 37 25 134 72 42 416
internal_value=0.00800153 4.53416 -1.69457 6.79857 -0.0226755 -2.54438 2.70055 5.93934 -2.10167 9.14168 6.16896 3.05483 1.02952 1.11076 1.84886 0.967469 0.535065 1.20538 2.64597 -1.91577 5.41647 4.86315 4.11671 5.62364 5.16675 5.69835 2.67943 2.97669 2.43123 -2.032
internal_weight=13337 3641 9696 1617 3271 6425 2024 1209 2431 408 919 1222 1211 1058 172 886 153 57 57 1217 290 79 54 211 89 62 289 155 83 822
internal_count=13337 3641 9696 1617 3271 6425 2024 1209 2431 408 919 1222 1211 1058 172 886 153 57 57 1217 290 79 54 211 89 62 289 155 83 822
cat_boundaries=0 1 2 4 5 7 8
cat_threshold=1510162945 1208091136 21006504 1 131072 16779264 1 2147497028
is_linear=0
shrinkage=0.05


Tree=12
num_leaves=31
num_cat=6
split_feature=0 0 0 0 0 0 2 6 2 2 2 6 2 5 6 6 6 6 6 6 6 2 6 4 6 6 2 5 5 2
split_gain=3.71599e+07 5.33172e+06 4.96818e+06 818596 775891 226839 98529.7 45059.9 40909.7 24436.2 22400.3 21670 19710.9 15992.6 40394.4 19872.3 18574.4 14735.4 13394.4 13085.1 17503.3 12564.2 12000.7 34322.2 27393.1 11600 20849.6 13916.9 11336 13468.2
threshold=0 1 2 3 4 5 20.783484620000007 7.5000000000000009 13.835407430000002 32.48498699000001 23.145394715000005 11.500000000000002 22.174560175000003 7.5000000000000009 6.5000000000000009 8.5000000000000018 1.5000000000000002 5.5000000000000009 2.5000000000000004 1.5000000000000002 2.5000000000000004 31.309999715000004 2.5000000000000004 2019.5000000000002 1.5000000000000002 5.5000000000000009 22.174560175000003 7.5000000000000009 5.5000000000000009 27.466655495000001
decision_type=1 1 1 1 1 1 2 8 2 2 2 8 2 10 10 10 10 10 10 10 10 2 10 10 10 10 2 10 8 2
left_child=1 3 4 11 13 9 8 22 -3 -4 -7 -1 -9 14 16 21 -2 18 -15 -8 -21 -16 23 24 -5 -24 -27 -28 -14 -30
right_child=2 6 5 7 -6 10 19 12 -10 -11 -12 -13 28 17 15 -17 -18 -19 -20 20 -22 -23 25 -25 -26 26 27 -29 29 -31
leaf_value=8.4144759693661264 1.0140289083080707 2.6996824615434107 -2.0286361186413457 4.9960583823067806 -0.61120477688485308 -2.456117339444678 3.1542719902560261 5.5351621427196518 2.0847056795794177 -1.5901950218104108 -2.7095194299594358 9.1723765974778413 6.576155352592469 0.17835817817937247 1.9776842092856386 1.3680735174681893 0.36701863632752346 0.13021156183094718 1.7527875674622402 1.5924743167559308 2.8669776131709419 3.519087543487549 5.659105966911941 6.1516853637695315 2.7422233544863186 3.7487289958529999 6.0291945309252357 4.502098556518555 6.1966262688353604 5.6920061702158913
leaf_weight=148 756 408 1626 28 2060 1198 520 309 802 395 3206 260 81 22 39 113 130 96 35 30 264 20 122 25 26 27 37 25 261 268
leaf_count=148 756 408 1626 28 2060 1198 520 309 802 395 3206 260 81 22 39 113 130 96 35 30 264 20 122 25 26 27 37 25 261 268
internal_value=0.00747206 4.30745 -1.61002 6.45864 -0.0216398 -2.41738 2.56553 5.64237 2.29207 -1.93338 -2.63461 8.68459 5.86051 0.978046 1.05522 1.75642 0.919095 0.508312 1.14511 3.00354 2.73693 2.50019 5.14565 4.61999 3.91088 5.34246 4.90841 5.41343 6.02532 5.94098
internal_weight=13337 3641 9696 1617 3271 6425 2024 1209 1210 2021 4404 408 919 1211 1058 172 886 153 57 814 294 59 290 79 54 211 89 62 610 529
internal_count=13337 3641 9696 1617 3271 6425 2024 1209 1210 2021 4404 408 919 1211 1058 172 886 153 57 814 294 59 290 79 54 211 89 62 610 529
cat_boundaries=0 1 2 4 5 7 8
cat_threshold=1510162945 1208091136 21006504 1 131072 16779264 1 2147496964
is_linear=0
shrinkage=0.05


Tree=13
num_leaves=31
num_cat=6
split_feature=0 0 0 0 0 0 3 6 2 6 6 3 5 6 2 6 6 5 6 6 6 6 6 4 6 3 2 6 6 2
split_gain=3.35372e+07 4.81188e+06 4.48342e+06 738783 700379 206039 116786 40666.6 30768.2 19557.2 18211.6 18078.3 14433.4 36456 18619.7 16763.4 13298.7 13224.8 12088.4 11016.5 18582.5 14452.1 10830.6 30975.8 24722.3 11622.3 10811 10788.2 10697 10325.3
threshold=0 1 2 3 4 5 78.310015620000016 7.5000000000000009 29.495200925000002 11.500000000000002 7.5000000000000009 77.640004840000017 7.5000000000000009 6.5000000000000009 31.309999715000004 1.5000000000000002 5.5000000000000009 3.5000000000000004 2.5000000000000004 4.5000000000000009 2.5000000000000004 1.5000000000000002 2.5000000000000004 2019.5000000000002 1.5000000000000002 77.640004840000017 32.48498699000001 8.5000000000000018 7.5000000000000009 19.535330830000003
decision_type=1 1 1 1 1 1 2 8 2 8 8 2 10 10 2 10 10 8 10 10 10 10 10 10 10 2 2 10 10 2
left_child=1 3 4 9 12 8 10 22 -4 -1 19 -9 13 15 -15 -2 18 -13 -14 20 21 -3 23 24 -5 -24 -10 -16 -18 -6
right_child=2 6 5 7 29 -7 -8 11 26 -11 -12 17 16 14 27 -17 28 -19 -20 -21 -22 -23 25 -25 -26 -27 -28 -29 -30 -31
leaf_value=7.9937522179371605 0.96332746338734909 2.8550705374740972 -2.0814245905868307 4.7462554250444686 -0.80749281108090032 -2.5352306967610487 1.9804704197348002 5.8844656925031682 -1.8289679011579267 8.71375768661499 2.8644088756186754 6.2093340675036117 0.16944027570160955 1.3023439288916796 3.3431331348419193 0.34866770345717674 -0.57307955839804237 5.3451028174381898 1.6651481839588713 2.0781491512182488 3.2849957002533809 1.5354231175212634 5.6020042459453858 5.8441011848449707 2.6051121931809647 4.8138724486033126 -1.510685285737243 1.9017929759581347 0.52349310224784207 -0.52764123261146689
leaf_weight=148 756 41 1214 28 412 3994 802 302 822 260 933 48 22 115 20 130 35 569 35 134 72 42 70 25 26 141 395 37 61 1648
leaf_count=148 756 41 1214 28 412 3994 802 302 822 260 933 48 22 115 20 130 35 569 35 134 72 42 70 25 26 141 395 37 61 1648
internal_value=0.00707553 4.09208 -1.52955 6.13571 -0.0206509 -2.29651 2.43725 5.36025 -1.89553 8.25036 2.75698 5.56749 0.929143 1.00246 1.6686 0.87314 0.482897 5.41234 1.08786 2.41016 2.6972 2.1873 4.88837 4.38899 3.71533 5.07534 -1.72566 2.40753 0.123701 -0.580792
internal_weight=13337 3641 9696 1617 3271 6425 2024 1209 2431 408 1222 919 1211 1058 172 886 153 617 57 289 155 83 290 79 54 211 1217 57 96 2060
internal_count=13337 3641 9696 1617 3271 6425 2024 1209 2431 408 1222 919 1211 1058 172 886 153 617 57 289 155 83 290 79 54 211 1217 57 96 2060
cat_boundaries=0 1 2 4 5 7 8
cat_threshold=1510162945 1208091136 21006504 1 131072 16779264 1 2147497028
is_linear=0
shrinkage=0.05


Tree=14
num_leaves=31
num_cat=6
split_feature=0 0 0 0 0 0 3 6 2 5 2 6 5 6 6 6 6 2 6 6 6 6 6 2 2 2 5 5 2 5
split_gain=3.02688e+07 4.34272e+06 4.04702e+06 666752 632092 186177 105399 36701.6 27768.3 18607.7 16875.3 16436 13026.1 32901.5 17117.9 15128.9 12863.1 10315.5 13146.5 14926.5 9942.43 16770.7 13043 9813.96 9756.89 10289.1 9754.42 12029.3 9318.58 9107.93
threshold=0 1 2 3 4 5 78.310015620000016 7.5000000000000009 29.495200925000002 6.5000000000000009 22.174560175000003 7.5000000000000009 7.5000000000000009 6.5000000000000009 8.5000000000000018 1.5000000000000002 3.5000000000000004 22.174560175000003 4.5000000000000009 2.5000000000000004 4.5000000000000009 2.5000000000000004 1.5000000000000002 31.309999715000004 32.48498699000001 30.910011210000004 5.5000000000000009 10.500000000000002 19.535330830000003 9.5000000000000018
decision_type=1 1 1 1 1 1 2 8 2 10 2 8 10 10 10 10 10 2 10 10 10 10 10 2 2 2 8 8 2 10
left_child=1 3 4 9 12 8 11 17 -4 -1 -9 20 13 15 23 -2 -14 18 19 -5 21 22 -3 -15 25 -10 -12 -28 -6 -11
right_child=2 6 5 7 28 -7 -8 10 24 29 26 -13 16 14 -16 -17 -18 -19 -20 -21 -22 -23 -24 -25 -26 -27 27 -29 -30 -31
leaf_value=8.1674068870544438 0.9151610955955688 2.7123169864096295 -1.9773533541445287 3.9350025517599927 -0.76711816942518196 -2.4087857308325833 1.8814468659664927 4.9880723621322502 -1.5584565931940313 6.5290959040323902 5.9525715133290236 2.7211884718104833 1.3329933324998076 1.8136828459226171 1.2247386442612758 0.33123431632581812 0.21833522408579786 4.8537242797232167 3.5565753073919391 5.5987238590533925 1.9742417071292651 3.1207459078894724 1.4586519577673505 3.1759765291213991 -1.4351510373851921 -1.9122780075440042 4.4237193711102014 5.4238684121751692 -0.50125918006439674 7.7852159069430442
leaf_weight=350 756 41 1214 28 412 3994 802 309 406 27 81 933 33 39 113 130 120 194 42 26 134 72 42 20 395 416 32 497 1648 31
leaf_count=350 756 41 1214 28 412 3994 802 309 406 27 81 933 33 39 113 130 120 194 42 26 134 72 42 20 395 416 32 497 1648 31
internal_value=0.00662672 3.88747 -1.4532 5.82892 -0.0196184 -2.18188 2.31539 5.09224 -1.80075 7.83785 5.28911 2.61913 0.882686 0.952335 1.58517 0.829483 0.458752 4.64395 4.22003 4.73605 2.28966 2.56234 2.07793 2.27548 -1.63938 -1.73752 5.44161 5.36337 -0.551753 7.20047
internal_weight=13337 3641 9696 1617 3271 6425 2024 1209 2431 408 919 1222 1211 1058 172 886 153 290 96 54 289 155 83 59 1217 822 610 529 2060 58
internal_count=13337 3641 9696 1617 3271 6425 2024 1209 2431 408 919 1222 1211 1058 172 886 153 290 96 54 289 155 83 59 1217 822 610 529 2060 58
cat_boundaries=0 1 2 4 5 7 8
cat_threshold=1510162945 1208091136 21006504 1 131072 16779264 1 2147497028
is_linear=0
shrinkage=0.05


Tree=15
num_leaves=31
num_cat=6
split_feature=0 0 0 0 0 0 3 6 4 2 2 6 2 2 6 6 6 5 6 2 6 2 6 4 6 6 6 4 6 7
split_gain=2.71042e+07 6.00193e+06 1.46576e+06 653854 492293 173133 86081.2 35817.7 18573.9 17833.1 17351.7 17291.2 15506.9 15008.6 13227 12185.2 18649.1 14791.8 11866.9 9673.19 9640.43 9112.43 8954.42 8993.41 7660.25 7219.1 14324.3 19352.6 16241.8 12647.9
threshold=0 1 2 3 4 5 78.310015620000016 7.5000000000000009 2019.5000000000002 32.48498699000001 23.145394715000005 7.5000000000000009 26.117706830000007 22.174560175000003 8.5000000000000018 7.5000000000000009 8.5000000000000018 5.5000000000000009 4.5000000000000009 21.695405700000006 9.5000000000000018 16.802198500000003 7.5000000000000009 2019.5000000000002 9.5000000000000018 5.5000000000000009 2.5000000000000004 2019.5000000000002 1.5000000000000002 2.5000000000000004
decision_type=1 1 1 1 1 1 2 8 10 2 2 8 2 2 8 10 10 10 10 2 10 2 10 10 10 10 10 10 10 10
left_child=1 3 19 11 15 9 12 25 13 -4 -7 -1 14 20 -6 -3 -17 -18 21 -2 -9 -8 -20 -24 -10 26 27 28 -5 -27
right_child=2 4 5 7 6 10 18 8 24 -11 -12 -13 -14 -15 -16 16 17 -19 22 -21 -22 -23 23 -25 -26 29 -28 -29 -30 -31
leaf_value=7.0627886801650845 -0.65327514933800346 0.85669751366281932 -1.7327995244666927 4.2546421898735893 2.0461593131134417 -2.1032120944877182 1.7507089223498007 4.7034875124101605 5.063499953895807 -1.3618255396781884 -2.3268569223629023 7.827410731668258 2.7552577957879789 5.0544603469250093 2.5006274060671587 2.2655967718515639 1.4109379320451529 0.40908357575535775 1.1126224875653861 -0.42898302061115051 3.7093690201088236 2.139848251054397 1.4945456361528053 2.4099348034996257 6.2839480810695223 3.2224564631779993 4.8427156182994011 5.0542841805352108 2.4860115604400637 4.4568118292458205
leaf_weight=97 798 1006 1603 27 221 1187 295 252 20 406 3220 311 404 573 581 39 101 58 84 1209 27 307 86 39 36 36 115 27 25 49
leaf_count=97 798 1006 1603 27 221 1187 295 252 20 406 3220 311 404 573 581 39 101 58 84 1209 27 307 86 39 36 36 115 27 25 49
internal_value=0.00738761 2.99572 -1.70278 5.50364 1.74063 -2.07276 2.22376 4.77354 4.966 -1.64962 -2.26149 7.46272 2.50265 4.90803 2.37539 0.919627 1.28581 1.04548 1.83646 -0.515594 4.60728 1.94916 1.51186 1.78015 5.84807 4.31826 4.48662 3.96824 3.40434 3.93403
internal_weight=13239 4816 8423 1595 3221 6416 2017 1187 908 2009 4407 408 1206 852 802 1204 198 159 811 2007 279 602 209 125 56 279 194 79 52 85
internal_count=13239 4816 8423 1595 3221 6416 2017 1187 908 2009 4407 408 1206 852 802 1204 198 159 811 2007 279 602 209 125 56 279 194 79 52 85
cat_boundaries=0 2 3 4 5 7 8
cat_threshold=1526942209 1 1208091136 4227240 131072 16779264 1 2147496964
is_linear=0
shrinkage=0.05


Tree=16
num_leaves=31
num_cat=6
split_feature=0 0 0 0 0 0 3 6 4 2 2 6 6 6 2 6 6 6 2 6 2 6 6 6 2 6 6 6 3 6
split_gain=2.44615e+07 5.41674e+06 1.32285e+06 590103 444294 156252 77688.3 32325.4 16762.9 16094.4 15659.9 15605.3 14473.9 13596.8 13545.2 10997.2 16830.8 10709.8 8730.06 8700.49 8223.96 8081.37 8434.61 9021.43 8055.08 7625.78 6987.1 8180.93 6956.3 11815.6
threshold=0 1 2 3 4 5 78.310015620000016 7.5000000000000009 2019.5000000000002 32.48498699000001 23.145394715000005 7.5000000000000009 2.5000000000000004 4.5000000000000009 22.174560175000003 7.5000000000000009 8.5000000000000018 4.5000000000000009 21.695405700000006 9.5000000000000018 16.802198500000003 7.5000000000000009 9.5000000000000018 8.5000000000000018 26.117706830000007 1.5000000000000002 9.5000000000000018 11.500000000000002 77.640004840000017 2.5000000000000004
decision_type=1 1 1 1 1 1 2 8 10 2 2 8 8 10 2 10 10 10 2 10 2 10 10 10 2 10 8 8 2 10
left_child=1 3 18 11 15 9 12 28 14 -4 -7 -1 25 24 19 -3 -17 20 -2 -9 -8 -19 23 -23 -14 -6 -13 -28 29 -5
right_child=2 4 5 7 6 10 17 8 -10 -11 -12 26 13 -15 -16 16 -18 21 -20 -21 -22 22 -24 -25 -26 -27 27 -29 -30 -31
leaf_value=6.709649266901704 -0.62061136697738772 0.81386262738584714 -1.6461595518025325 3.555789873335097 2.2577377688703675 -1.9980514752935141 1.6631735493773121 4.4683132239750458 5.5556700442518512 -1.2937342327803814 -2.2105140927711631 8.2950059197165746 2.4171295792719834 2.143580857126119 4.8017372723459477 2.1523169040679933 0.99320753479622459 1.0569913572410035 -0.40753385003315667 3.5239005265412509 2.0328558593891346 1.5077099606990814 1.350169359097207 2.8379685952113225 2.74917586447968 1.2309360930323603 6.524567516033466 7.4542952526658217 3.9200846763102564 4.7870611279351376
leaf_weight=97 798 1006 1603 27 33 1187 295 252 56 406 3220 22 540 317 573 39 159 84 1209 27 307 25 74 26 276 40 26 263 182 70
leaf_count=97 798 1006 1603 27 33 1187 295 252 56 406 3220 22 540 317 573 39 159 84 1209 27 307 25 74 26 276 40 26 263 182 70
internal_value=0.00701823 2.84593 -1.61764 5.22846 1.6536 -1.96912 2.11257 4.53486 4.7177 -1.56714 -2.14841 7.08958 2.37751 2.42148 4.66262 0.873646 1.22152 1.74464 -0.489815 4.37692 1.8517 1.43627 1.69114 2.18588 2.52944 1.69511 7.43604 7.37065 4.10235 4.44434
internal_weight=13239 4816 8423 1595 3221 6416 2017 1187 908 2009 4407 408 1206 1133 852 1204 198 811 2007 279 602 209 125 51 816 73 311 289 279 97
internal_count=13239 4816 8423 1595 3221 6416 2017 1187 908 2009 4407 408 1206 1133 852 1204 198 811 2007 279 602 209 125 51 816 73 311 289 279 97
cat_boundaries=0 2 3 4 5 7 8
cat_threshold=1526942209 1 1208091136 4227240 131072 16779264 1 2147496964
is_linear=0
shrinkage=0.05


Tree=17
num_leaves=31
num_cat=6
split_feature=0 0 0 0 0 0 3 5 6 2 2 6 2 6 5 6 6 5 6 5 2 2 6 4 6 6 2 6 6 4
split_gain=2.20765e+07 4.88861e+06 1.19387e+06 532568 400976 141901 70113.7 29720.4 41976.9 22212.5 17529.1 14350.8 13117.1 11226.4 11163.5 9924.94 15189.8 13349.6 9665.63 8606.93 7902.09 7422.13 7293.43 8075.04 6910.22 15907.5 6828.69 6469.89 23667.2 11402.5
threshold=0 1 2 3 4 5 78.310015620000016 5.5000000000000009 11.500000000000002 29.495200925000002 22.174560175000003 2.5000000000000004 26.117706830000007 8.5000000000000018 11.500000000000002 7.5000000000000009 8.5000000000000018 5.5000000000000009 4.5000000000000009 4.5000000000000009 19.535330830000003 16.802198500000003 7.5000000000000009 2019.5000000000002 2.5000000000000004 4.5000000000000009 31.309999715000004 6.5000000000000009 8.5000000000000018 2019.5000000000002
decision_type=1 1 1 1 1 1 2 10 10 2 2 8 2 8 10 10 10 10 10 8 2 2 10 10 10 10 2 8 8 8
left_child=1 3 20 11 15 9 12 8 10 -4 19 -1 13 -6 24 -3 -17 26 21 -5 -2 -8 -20 -24 -9 -26 -18 -12 -29 -30
right_child=2 4 5 7 6 -7 18 14 -10 -11 27 -13 -14 -15 -16 16 17 -19 22 -21 -22 -23 23 -25 25 -27 -28 28 29 -31
leaf_value=5.7140328089396162 -0.66870114991154628 0.77316952824044538 -1.6953147317588582 3.5808259345591069 1.8382854238658202 -2.0661246356036926 1.5800148689342759 2.9256507076066116 6.5228431622187308 -1.3906949865216554 4.1470134660776923 6.97431107138594 2.4909709428501601 2.2569760309003306 4.6466121762990955 2.0447010877804881 1.0107497217862502 0.33896902925656019 1.0041417825601198 4.2311884387366234 -0.41868584047786001 1.9312130250974961 1.3359562492517885 2.2033488872723703 4.7730504989624025 3.4894190807954981 1.8944395840168 5.9356130301952366 3.446610944167428 4.5847204062284206
leaf_weight=24 393 1006 1185 64 221 4022 295 29 24 1209 85 384 404 581 32 39 69 58 84 248 1614 307 86 39 31 109 32 32 23 510
leaf_count=24 393 1006 1185 64 221 4022 295 29 24 1209 85 384 404 581 32 39 69 58 84 248 1614 307 86 39 31 109 32 32 23 510
internal_value=0.00666732 2.70363 -1.53676 4.96703 1.57092 -1.87067 2.00694 4.30812 4.45737 -1.53507 4.40584 6.7351 2.25864 2.1416 3.79028 0.829964 1.16044 0.943547 1.65741 4.09778 -0.465324 1.75911 1.36445 1.60658 3.62814 3.77365 1.29073 4.55372 4.6149 4.53561
internal_weight=13239 4816 8423 1595 3221 6416 2017 1187 986 2394 962 408 1206 802 201 1204 198 159 811 312 2007 602 209 125 169 140 101 650 565 533
internal_count=13239 4816 8423 1595 3221 6416 2017 1187 986 2394 962 408 1206 802 201 1204 198 159 811 312 2007 602 209 125 169 140 101 650 565 533
cat_boundaries=0 2 3 4 5 7 8
cat_threshold=1526942209 1 1208091136 4227240 131072 16779264 1 2147497028
is_linear=0
shrinkage=0.05


Tree=18
num_leaves=31
num_cat=0
split_feature=3 2 2 2 3 2 3 2 3 3 3 2 2 2 2 2 2 2 2 5 6 3 2 3 7 2 4 6 6 6
split_gain=7.70089e+06 5.35126e+06 1.32384e+06 2.86094e+06 2.54739e+06 2.53754e+06 910296 799563 610673 553455 374995 274080 177449 158026 132141 253902 112559 52681.5 119100 31688.1 43797.2 30049 21697.8 30675.6 21387.3 15847.6 15546.4 23021.4 16942.6 15491.3
threshold=79.490021120000009 28.559999615000006 18.681315975000004 20.043503950000005 76.850001380000023 20.783484620000007 88.473297075000019 28.024993510000005 76.185009745000016 79.084670935000005 87.904959675000015 22.174560175000003 19.535330830000003 29.495200925000002 26.117706830000007 27.466655495000001 15.121213050000001 23.755396240000007 25.726206175000005 4.5000000000000009 6.5000000000000009 94.166618815000007 32.48498699000001 77.09329402500002 5.5000000000000009 13.835407430000002 2019.5000000000002 2.5000000000000004 5.5000000000000009 2.5000000000000004
decision_type=2 2 2 2 2 2 2 2 2 2 2 2 2 2 2 2 2 2 2 8 10 2 2 2 8 2 10 8 8 8
left_child=1 2 4 -4 16 -5 10 11 26 25 12 -7 -2 -10 29 -16 -1 -14 -19 20 -17 -8 23 -15 -21 -6 27 -3 -29 -13
right_child=6 8 3 5 9 7 21 -9 13 -11 -12 14 17 22 15 19 -18 18 -20 24 -22 -23 -24 -25 -26 -27 -28 28 -30 -31
leaf_value=-0.63526609198927275 -1.8775490649580662 -0.83656946704501201 6.5551682984127728 -1.6930286580866036 1.9587932080290562 2.1102489472476029 -2.0054120991699391 0.7597680511891256 -0.36679889326009374 3.8629907784641397 0.74388928583616187 3.1923423502180315 -0.4193444955282577 -1.9361746698764746 2.3664222973850695 3.7359623324486524 -1.8274387058458832 -1.6001665907712717 -0.38531922282260145 3.1396250728460462 6.2684378341624614 -1.541250175686937 -1.1595127768117219 -1.4028898332068513 4.1568578205707061 1.5745371655304945 1.746138954680899 2.025052181605635 0.76036190365561385 4.431602053367655
leaf_weight=393 403 21 408 385 401 401 2814 407 401 392 396 27 808 406 404 31 399 402 405 65 38 398 406 803 252 811 46 29 305 382
leaf_count=393 403 21 408 385 401 401 2814 407 401 392 396 27 808 406 404 31 399 402 405 65 38 398 406 803 252 811 46 29 305 382
internal_value=0.00625591 1.04291 1.94703 2.6853 1.08427 2.02523 -1.39653 2.73849 -0.90073 2.22987 -0.662893 3.24183 -0.938951 -1.25519 3.62028 3.2426 -1.23587 -0.704738 -0.990485 4.15964 5.13066 -1.9479 -1.47577 -1.58197 3.94828 1.70167 0.881275 0.769208 0.87017 4.34979
internal_weight=13239 7613 5196 2800 2396 2392 5626 2007 2417 1604 2414 1600 2018 2016 1199 790 792 1615 807 386 69 3212 1615 1209 317 1212 401 355 334 409
internal_count=13239 7613 5196 2800 2396 2392 5626 2007 2417 1604 2414 1600 2018 2016 1199 790 792 1615 807 386 69 3212 1615 1209 317 1212 401 355 334 409
is_linear=0
shrinkage=0.05


Tree=19
num_leaves=31
num_cat=6
split_feature=0 0 0 0 0 0 3 6 2 6 6 6 5 6 2 6 3 6 6 5 6 6 7 5 6 3 6 5 6 2
split_gain=1.79826e+07 3.9818e+06 972648 433780 326597 115716 57108 25439.6 18092.2 13454.6 12591.8 11850.3 10342.2 26131.2 19671.9 15807.9 13829.7 8784.11 13747 11829 8723.23 7325.21 10940.2 15291.4 10851.1 7666.86 7293.24 7165.6 6923.21 6905.61
threshold=0 1 2 3 4 5 78.310015620000016 7.5000000000000009 29.495200925000002 7.5000000000000009 2.5000000000000004 4.5000000000000009 5.5000000000000009 11.500000000000002 27.466655495000001 10.500000000000002 77.640004840000017 7.5000000000000009 8.5000000000000018 5.5000000000000009 4.5000000000000009 5.5000000000000009 2.5000000000000004 6.5000000000000009 2.5000000000000004 77.640004840000017 1.5000000000000002 5.5000000000000009 1.5000000000000002 21.695405700000006
decision_type=1 1 1 1 1 1 2 8 2 8 8 10 8 10 2 10 2 10 10 10 10 10 10 10 10 2 10 10 10 2
left_child=1 3 29 9 17 8 10 21 -4 27 28 -12 13 14 -9 16 -14 -3 -19 -20 -8 24 -23 -24 26 -26 -5 -1 -6 -2
right_child=2 4 5 7 6 -7 20 12 -10 -11 11 -13 15 -15 -16 -17 -18 18 19 -21 -22 22 23 -25 25 -27 -28 -29 -30 -31
leaf_value=6.1130585303673382 -0.53620604400197391 0.69534795599402655 -1.5300215812071467 3.6841699661278144 1.9380138934081927 -1.8649208854115198 1.5924316962939562 3.5637930271989209 -1.2551022302424051 6.3877641412606199 2.1802168386344634 1.8199903472270877 4.3183211640539501 5.9598900397618619 5.1034091502428058 2.7475650138854983 3.8715968717540066 1.9009002245389501 1.1801595828394489 0.28424043339046906 1.2175038487744034 2.4544101430310143 4.5415264710136078 2.7716561124874999 4.531241979831603 3.6788883905153016 2.7226459553367217 5.2513222588433166 0.95965476036071784 -0.34669697220391782
leaf_weight=52 798 1006 1185 41 33 4022 602 59 1209 311 816 317 264 24 32 25 504 39 101 58 209 36 23 26 41 74 38 45 40 1209
leaf_count=52 798 1006 1185 41 33 4022 602 59 1209 311 816 317 264 24 32 25 504 39 101 58 209 36 23 26 41 74 38 45 40 1209
internal_value=0.00594312 2.44003 -1.38704 4.48275 1.41776 -1.68843 1.81127 3.88808 -1.3854 6.07843 2.03842 2.07943 4.04914 4.49226 4.1052 3.98488 4.02516 0.749042 1.05968 0.853346 1.49581 3.50325 3.1162 3.60241 3.67284 3.98277 3.22166 5.71328 1.40193 -0.419955
internal_weight=13239 4816 8423 1595 3221 6416 2017 1187 2394 408 1206 1133 908 115 91 793 768 1204 198 159 811 279 85 49 194 115 79 97 73 2007
internal_count=13239 4816 8423 1595 3221 6416 2017 1187 2394 408 1206 1133 908 115 91 793 768 1204 198 159 811 279 85 49 194 115 79 97 73 2007
cat_boundaries=0 2 3 4 5 7 8
cat_threshold=1526942209 1 1208091136 4227240 131072 16779264 1 2147497028
is_linear=0
shrinkage=0.05


Tree=20
num_leaves=31
num_cat=6
split_feature=0 0 0 0 0 2 2 0 6 6 4 3 6 6 6 6 6 5 4 2 5 6 5 2 6 5 6 5 2 6
split_gain=1.6019e+07 3.60386e+06 861702 352151 298363 96398.9 36733.6 28192.6 26023.8 19861.7 17142.1 15487.7 12807 9818.04 17626.8 18936.5 11878.6 20780.4 12020.1 10283.4 9637.16 8239.19 15457 8054.87 7748.89 21760.3 9617.27 6945.76 6786.31 6425.57
threshold=0 1 2 3 4 29.495200925000002 20.783484620000007 5 7.5000000000000009 2.5000000000000004 2019.5000000000002 77.640004840000017 9.5000000000000018 4.5000000000000009 8.5000000000000018 9.5000000000000018 2.5000000000000004 7.5000000000000009 2019.5000000000002 13.835407430000002 8.5000000000000018 7.5000000000000009 4.5000000000000009 31.309999715000004 1.5000000000000002 4.5000000000000009 2.5000000000000004 5.5000000000000009 21.695405700000006 6.5000000000000009
decision_type=1 1 1 1 1 2 2 1 8 8 10 2 10 10 10 10 10 10 10 2 8 10 10 2 10 8 10 10 2 10
left_child=1 3 5 9 21 28 13 -4 27 -1 11 20 -12 16 -15 -16 17 19 -18 -6 -10 24 23 -23 25 -3 -26 29 -2 -5
right_child=2 4 7 8 6 -7 -8 -9 10 -11 12 -13 -14 14 15 -17 18 -19 -20 -21 -22 22 -24 -25 26 -27 -28 -29 -30 -31
leaf_value=4.5378683567047124 -0.52546974175746031 2.3360504546761511 -1.4427356655926642 3.3967552286588543 1.8664718996034937 -1.0670677315794481 1.9759843236443739 -1.7730741855721099 3.2413477305708263 5.9671693510408375 3.8030545363059414 3.6557388059248441 5.2431952727468394 0.95051660405362348 2.6744564032232443 1.3793438580450641 2.5921600405584302 -0.025156342983245851 1.2162526717240161 1.4791034131882619 4.2021283676797863 1.1083445198593602 0.55788833452206033 2.0753041570836848 -0.39771692551234189 0.66483334851233999 0.51188075783848763 3.0384441292475142 -0.3369523227402148 4.2942326053977018
leaf_weight=26 799 20 1628 118 256 786 790 4005 29 373 26 559 38 170 37 119 57 20 22 518 261 62 102 33 34 746 200 126 1186 24
leaf_count=26 799 20 1628 118 256 786 790 4005 29 373 26 559 38 170 37 119 57 20 22 518 261 62 102 33 34 746 200 126 1186 24
internal_value=-0.01124 2.30156 -1.32402 4.25339 1.32333 -0.596257 1.70271 -1.68033 3.71046 5.73041 3.86904 3.80956 4.65814 1.53685 1.30271 1.68652 1.62428 1.56611 2.209 1.60723 4.10605 0.684049 0.985315 1.44424 0.63154 0.708468 0.379717 3.30867 -0.412834 3.54844
internal_weight=13170 4766 8404 1580 3186 2771 1989 5633 1181 399 913 849 64 1199 326 156 873 794 79 774 290 1197 197 95 1000 766 234 268 1985 142
internal_count=13170 4766 8404 1580 3186 2771 1989 5633 1181 399 913 849 64 1199 326 156 873 794 79 774 290 1197 197 95 1000 766 234 268 1985 142
cat_boundaries=0 2 3 4 5 7 8
cat_threshold=1526942209 1 1208091136 2151714984 131072 16779264 1 9284
is_linear=0
shrinkage=0.05


Tree=21
num_leaves=31
num_cat=6
split_feature=0 0 0 0 0 2 2 0 4 6 6 6 6 3 6 6 5 6 6 6 5 4 2 6 6 6 5 2 6 5
split_gain=1.44588e+07 3.25249e+06 778120 317816 269273 87000 33152.1 25372.4 23528.8 26438.7 18232.4 17925.2 16127.2 14686.3 12362.6 23200.8 11607.3 8860.78 15933.8 10720.4 18754.3 10848.2 9280.78 7626.44 7634.26 7435.87 13950 7269.52 6993.37 19638.7
threshold=0 1 2 3 4 29.495200925000002 20.783484620000007 5 2019.5000000000002 9.5000000000000018 2.5000000000000004 2.5000000000000004 1.5000000000000002 77.640004840000017 11.500000000000002 10.500000000000002 11.500000000000002 4.5000000000000009 6.5000000000000009 2.5000000000000004 7.5000000000000009 2019.5000000000002 13.835407430000002 4.5000000000000009 6.5000000000000009 7.5000000000000009 4.5000000000000009 31.309999715000004 1.5000000000000002 4.5000000000000009
decision_type=1 1 1 1 1 2 2 1 8 10 10 8 10 2 10 10 10 10 10 10 10 10 2 10 10 10 10 2 10 8
left_child=1 3 5 11 25 -2 17 -4 10 13 12 -1 -5 -10 15 16 23 19 -19 20 22 -21 -6 -12 -25 28 27 -27 29 -3
right_child=2 4 7 8 6 -7 -8 -9 9 -11 14 -13 -14 -15 -16 -17 -18 18 -20 21 -22 -23 -24 24 -26 26 -28 -29 -30 -31
leaf_value=4.3109750050764815 -0.39219241795756432 2.2192479179799558 -1.3710392769730864 3.2485470466613773 1.7731483537005261 -1.0137143355896152 1.8771851180399519 -1.684641272781201 3.9250271233799618 4.9810355010785559 3.8300275344848638 5.6688107292070464 1.4861701301954411 3.4791810647676074 4.3922615619806145 1.8910547669444764 4.5090713609348647 0.63946189395634523 1.4418726851949046 2.4625520554550908 -0.023898527622222901 1.1554400633681905 1.4051482494906109 2.5642461645332251 3.3533794941288413 1.0529272852405425 0.52999391929045614 1.9715389873042253 0.36073113827464676 0.63159168051610681
leaf_weight=26 1985 20 1628 25 256 786 790 4005 281 38 50 373 27 539 26 28 22 83 243 57 20 22 518 44 101 62 102 33 234 746
leaf_count=26 1985 20 1628 25 256 786 790 4005 281 38 50 373 27 539 26 28 22 83 243 57 20 22 518 44 101 62 102 33 234 746
internal_value=-0.0108001 2.18648 -1.25801 4.04072 1.25716 -0.566444 1.61757 -1.5966 3.52494 3.69171 3.19105 5.44389 2.33347 3.63196 3.3556 3.24559 3.42036 1.46001 1.23758 1.54307 1.4878 2.09855 1.52686 3.29754 3.11392 0.649847 0.936049 1.37202 0.599963 0.673045
internal_weight=13170 4766 8404 1580 3186 2771 1989 5633 1181 858 323 399 52 820 271 245 217 1199 326 873 794 79 774 195 145 1197 197 95 1000 766
internal_count=13170 4766 8404 1580 3186 2771 1989 5633 1181 858 323 399 52 820 271 245 217 1199 326 873 794 79 774 195 145 1197 197 95 1000 766
cat_boundaries=0 2 3 4 5 7 8
cat_threshold=1526942209 1 1208091136 2151714984 131072 16779264 1 9284
is_linear=0
shrinkage=0.05


Tree=22
num_leaves=31
num_cat=6
split_feature=0 0 0 0 0 2 2 0 6 6 4 3 6 5 6 6 6 6 5 4 2 6 5 2 6 5 6 2 5 4
split_gain=1.30505e+07 2.93537e+06 702645 286829 243019 78517.5 29919.8 22834.2 21781 16177.5 13870.8 12783.7 10461.7 8146.97 7996.86 15029.3 17090.2 9675.18 16925.8 9790.46 8375.91 6710.87 12589.8 6560.74 6311.52 17723.9 8679.58 6124.65 6016.81 6014.26
threshold=0 1 2 3 4 29.495200925000002 20.783484620000007 5 7.5000000000000009 2.5000000000000004 2019.5000000000002 77.640004840000017 9.5000000000000018 8.5000000000000018 4.5000000000000009 8.5000000000000018 9.5000000000000018 2.5000000000000004 7.5000000000000009 2019.5000000000002 13.835407430000002 7.5000000000000009 4.5000000000000009 31.309999715000004 1.5000000000000002 4.5000000000000009 2.5000000000000004 21.695405700000006 5.5000000000000009 2019.5000000000002
decision_type=1 1 1 1 1 2 2 1 8 8 10 2 10 8 10 10 10 10 10 10 2 10 10 2 10 8 10 2 10 10
left_child=1 3 5 9 21 27 14 -4 28 -1 11 13 -12 -10 17 -16 -17 18 20 -19 -6 24 23 -23 25 -3 -26 -2 -5 -18
right_child=2 4 7 8 6 -7 -8 -9 10 -11 12 -13 -14 -15 15 16 29 19 -20 -21 -22 22 -24 -25 26 -27 -28 -29 -30 -31
leaf_value=4.0954262953538167 -0.47958662594961138 2.1082855215668679 -1.3029057960952741 3.2038831948814259 1.6844909435123556 -0.96302863171385755 1.7833258778309522 -1.6006189976474863 2.9142006368472657 5.3853702704045157 3.4303688173110674 3.300126220571121 4.7319837645480503 3.7975810087960342 0.85048541942063505 2.468639958146456 0.9995120883169698 2.3394244769163302 -0.022703594565391543 1.0976680365475742 1.3348908558149883 1.000280938417681 0.50349422517944786 1.8729620124354509 -0.39586761528078251 0.60001209506080877 0.46825016535446046 -0.30049507472294851 2.7292137900278686 1.767451033398912
leaf_weight=26 799 20 1628 142 256 786 790 4005 29 373 26 559 38 261 170 37 82 57 20 22 518 62 102 33 34 746 200 1186 126 37
leaf_count=26 799 20 1628 142 256 786 790 4005 29 373 26 559 38 261 170 37 82 57 20 22 518 62 102 33 34 746 200 1186 126 37
internal_value=-0.0103761 2.07716 -1.19529 3.83869 1.1943 -0.538122 1.53669 -1.51704 3.34869 5.1717 3.49338 3.43987 4.2032 3.70924 1.38701 1.1757 1.5301 1.46592 1.41341 1.99362 1.45052 0.617354 0.889247 1.30342 0.569965 0.639393 0.342695 -0.372583 2.98072 1.23828
internal_weight=13170 4766 8404 1580 3186 2771 1989 5633 1181 399 913 849 64 290 1199 326 156 873 794 79 774 1197 197 95 1000 766 234 1985 268 119
internal_count=13170 4766 8404 1580 3186 2771 1989 5633 1181 399 913 849 64 290 1199 326 156 873 794 79 774 1197 197 95 1000 766 234 1985 268 119
cat_boundaries=0 2 3 4 5 7 8
cat_threshold=1526942209 1 1208091136 2151714984 131072 16779264 1 9284
is_linear=0
shrinkage=0.05


Tree=23
num_leaves=31
num_cat=6
split_feature=0 0 0 0 0 2 2 0 6 6 2 6 5 2 5 2 6 6 6 5 4 2 6 5 7 5 6 7 7 4
split_gain=1.17794e+07 2.64917e+06 634490 258863 219324 70862.1 27002.6 20549.8 19700.2 14600.2 12975.2 10779.7 10710.3 15648.1 13650.6 7547.12 7217.16 13569 8731.85 15394.7 8835.89 7041.77 6056.56 11362.3 7149.66 5937.32 5914.26 5855.54 5722.02 5623.58
threshold=0 1 2 3 4 29.495200925000002 20.783484620000007 5 6.5000000000000009 2.5000000000000004 22.174560175000003 5.5000000000000009 5.5000000000000009 27.466655495000001 10.500000000000002 27.466655495000001 4.5000000000000009 6.5000000000000009 2.5000000000000004 6.5000000000000009 2019.5000000000002 13.835407430000002 7.5000000000000009 4.5000000000000009 2.5000000000000004 5.5000000000000009 4.5000000000000009 5.5000000000000009 4.5000000000000009 2019.5000000000002
decision_type=1 1 1 1 1 2 2 1 8 8 2 10 8 2 8 2 10 10 10 10 10 2 10 10 10 10 10 8 10 8
left_child=1 3 5 9 22 -2 16 -4 11 -1 29 -5 13 -12 -14 -16 18 -18 19 21 -20 -6 27 24 -24 -8 -11 -3 -26 -10
right_child=2 4 7 8 6 -7 25 -9 10 26 12 -13 14 -15 15 -17 17 -19 20 -21 -22 -23 23 -25 28 -27 -28 -29 -30 -31
leaf_value=3.890654912361732 -0.35395367061923982 0.32437604722342916 -1.2381582071201853 2.9248216224293557 1.5972501638823866 -0.91487716760192517 1.7558325575021076 -1.5207873873870965 2.6034268120587885 5.2440330929828418 3.2899539234078663 1.9313142756931485 2.4709597919045425 4.5601403982688984 3.6089824114659041 3.2230999045059026 0.56496452391372032 1.3054400344076471 2.2224532453637376 0.12167634248733522 1.0427846377546137 1.2758674969240762 1.7694987974668805 0.4783195129266995 0.33706900752507729 1.3895043022202369 4.8062496379974782 0.60889891556526399 1.3428759859454249 3.1443233254656886
leaf_weight=26 1985 237 1628 186 255 786 657 4005 59 264 49 32 41 48 258 249 83 243 57 25 22 514 38 102 26 133 109 763 31 259
leaf_count=26 1985 237 1628 186 255 786 657 4005 59 264 49 32 41 48 258 249 83 243 57 25 22 514 38 102 26 133 109 763 31 259
internal_value=-0.00996749 1.9733 -1.1357 3.64675 1.13459 -0.511216 1.45986 -1.44144 3.18125 4.91311 3.30535 2.77899 3.43422 3.9185 3.3485 3.41947 1.31766 1.11691 1.39262 1.34274 1.89394 1.38244 0.586487 0.844784 1.23825 1.69416 5.1161 0.541467 0.884087 3.04397
internal_weight=13170 4766 8404 1580 3186 2771 1989 5633 1181 399 963 218 645 97 548 507 1199 326 873 794 79 769 1197 197 95 790 373 1000 57 318
internal_count=13170 4766 8404 1580 3186 2771 1989 5633 1181 399 963 218 645 97 548 507 1199 326 873 794 79 769 1197 197 95 790 373 1000 57 318
cat_boundaries=0 2 3 4 5 7 8
cat_threshold=1526942209 1 1208091136 2151714984 131072 16779264 1 9284
is_linear=0
shrinkage=0.05


Tree=24
num_leaves=31
num_cat=6
split_feature=0 0 0 0 0 2 2 0 6 6 4 6 2 6 6 6 6 5 4 2 6 2 7 6 5 5 2 6 6 2
split_gain=1.06321e+07 2.39088e+06 572947 233624 197940 63953 24369.8 18885.4 17819.8 13176.7 11882.2 9339.45 8733.74 6673.52 14161.2 12696.2 11146.5 10386.2 7974.39 7662.6 5901.36 5868.26 5841.71 7097.63 5731.07 10721.9 10939.8 9700.93 7349.07 5527.5
threshold=0 1 2 3 4 29.495200925000002 20.783484620000007 5 7.5000000000000009 2.5000000000000004 2019.5000000000002 9.5000000000000018 22.174560175000003 8.5000000000000018 9.5000000000000018 4.5000000000000009 2.5000000000000004 6.5000000000000009 2019.5000000000002 13.835407430000002 9.5000000000000018 26.117706830000007 4.5000000000000009 4.5000000000000009 1.5000000000000002 7.5000000000000009 31.309999715000004 5.5000000000000009 7.5000000000000009 21.695405700000006
decision_type=1 1 1 1 1 2 2 1 8 8 10 10 2 8 8 10 10 10 10 2 10 2 10 8 8 8 2 10 10 2
left_child=1 3 5 9 22 29 13 -4 -5 -1 12 -12 20 15 -15 16 17 -6 -18 -16 -10 -8 23 -3 -25 26 -26 -27 -29 -2
right_child=2 4 7 8 6 -7 21 -9 10 -11 11 -13 -14 14 19 -17 18 -19 -20 -21 -22 -23 -24 24 25 27 -28 28 -30 -31
leaf_value=3.6961221383168148 -0.43790961424977487 0.11800354882049365 -1.2260437006414011 2.689301883501571 1.3971836332664935 -0.86913331317082632 1.4748923705676571 -1.473382741031777 2.9492079209284006 4.8602966370914968 3.0797745823860172 4.3095965598758905 3.2153822841589226 2.2799358960744498 1.4916276251799183 0.76076546079972207 2.1113305810250735 0.11559251642227174 0.99064540104432541 1.1731566336883616 2.1712615423732333 1.7474610355993112 0.86051048857884282 -0.20008101165294648 0.68775329768657689 0.56848068039281441 1.6821467582590697 -0.7813375803439514 0.31329370157226277 -0.26777263533529744
leaf_weight=26 799 99 2417 268 43 786 400 3216 251 373 26 38 571 37 285 170 57 25 22 560 27 390 144 24 85 735 41 23 46 1186
leaf_count=26 799 99 2417 268 43 786 400 3216 251 373 26 38 571 37 285 170 57 25 22 560 27 390 144 24 85 735 41 23 46 1186
internal_value=-0.00957386 1.87464 -1.07908 3.46442 1.07786 -0.485655 1.38687 -1.36962 3.02219 4.66746 3.15301 3.80998 3.10348 1.25177 1.32249 1.05501 1.3953 0.92601 1.79924 1.28057 2.87365 1.60945 0.557162 0.52097 0.562787 0.582474 1.01133 0.515266 -0.0515834 -0.336256
internal_weight=13170 4766 8404 1580 3186 2771 1989 5633 1181 399 913 64 849 1199 882 317 147 68 79 845 278 790 1197 1053 954 930 126 804 69 1985
internal_count=13170 4766 8404 1580 3186 2771 1989 5633 1181 399 913 64 849 1199 882 317 147 68 79 845 278 790 1197 1053 954 930 126 804 69 1985
cat_boundaries=0 2 3 4 5 7 8
cat_threshold=1526942209 1 1208091136 2151714984 131072 16779264 1 533828
is_linear=0
shrinkage=0.05


Tree=25
num_leaves=31
num_cat=6
split_feature=0 0 0 0 0 0 3 3 6 5 6 6 5 2 5 5 2 5 6 6 7 2 5 6 2 6 6 6 2 6
split_gain=9.85922e+06 1.32454e+06 1.30605e+06 250179 183264 65206.1 31201.6 18317.2 9974.15 9933.47 9823.52 19931.1 10196.8 14346.5 9106.97 9103.52 8460.71 7790.39 7288.17 10352.2 7280.76 7016.48 6854.2 6465.82 6401.4 6199.71 5957.45 6012.13 5889.63 5766.32
threshold=0 1 2 3 4 5 78.310015620000016 77.640004840000017 2.5000000000000004 6.5000000000000009 6.5000000000000009 5.5000000000000009 7.5000000000000009 27.466655495000001 10.500000000000002 2.5000000000000004 23.145394715000005 6.5000000000000009 1.5000000000000002 2.5000000000000004 2.5000000000000004 32.48498699000001 5.5000000000000009 6.5000000000000009 21.695405700000006 7.5000000000000009 8.5000000000000018 10.500000000000002 16.802198500000003 9.5000000000000018
decision_type=1 1 1 1 1 1 2 2 8 10 8 10 8 2 8 10 2 10 10 10 10 2 8 10 2 10 10 10 2 10
left_child=2 4 3 17 18 21 9 8 -5 -4 11 15 13 -12 -14 -9 -7 -1 22 -20 -15 -3 -2 -10 -6 -11 -25 -28 -8 -30
right_child=1 5 6 7 24 16 28 10 23 25 12 -13 14 20 -16 -17 -18 -19 19 -21 -22 -23 -24 26 -26 -27 27 -29 29 -31
leaf_value=4.6930042927320299 1.4221323936043875 -1.0373074148126136 1.5675732815312708 2.1494546736280125 -0.41053508854887677 -1.248428859177827 0.97231069022986161 3.4948444442749023 3.3120001299851611 0.94032657527554364 2.6789285807697865 1.1870023172477198 1.9436026457377844 4.5592786561875114 2.776687367165009 2.430195421331069 -1.4026685286435214 4.0310595661986106 -0.48292536075050774 0.39069862080545259 3.3683418143879287 -0.80444022920396607 0.5459201086727552 2.291719488664107 -0.22787743663042981 1.5625404399248861 3.6506803802081516 2.5839049148559572 1.3040818760152553 0.66470007680547549
leaf_weight=346 23 1607 1053 24 796 1217 398 25 294 113 54 29 35 21 523 102 3300 51 37 406 33 405 754 33 1207 62 28 25 368 39
leaf_count=346 23 1607 1053 24 796 1217 398 25 294 113 54 29 35 21 523 102 3300 51 37 406 33 405 754 33 1207 62 28 25 368 39
internal_value=-0.00540387 -0.835653 2.20545 3.26919 -0.00517964 -1.24498 1.34439 2.83918 3.13802 1.5096 2.72685 2.36971 2.8105 3.25521 2.72443 2.63977 -1.35811 4.49475 0.475681 0.317732 3.83148 -0.985535 0.571857 3.20045 -0.298974 1.16077 2.81911 3.14748 1.10907 1.24281
internal_weight=13408 9752 3656 1623 3223 6529 2033 1226 404 1228 822 156 666 108 558 127 4517 397 1220 443 54 2012 777 380 2003 175 86 53 805 407
internal_count=13408 9752 3656 1623 3223 6529 2033 1226 404 1228 822 156 666 108 558 127 4517 397 1220 443 54 2012 777 380 2003 175 86 53 805 407
cat_boundaries=0 1 3 4 5 7 8
cat_threshold=1510162945 21006504 1 1208091136 131072 16779264 1 2147496964
is_linear=0
shrinkage=0.05


Tree=26
num_leaves=31
num_cat=7
split_feature=0 0 0 0 0 0 3 3 6 6 5 2 6 6 5 5 6 2 7 7 5 6 0 6 2 6 6 6 2 6
split_gain=8.89795e+06 1.1954e+06 1.17871e+06 225787 165396 58848.5 28159.5 16531.3 9357.15 9001.67 8964.96 7635.79 7400.58 17987.8 8215.93 7030.83 6766.84 27809 6709.54 7974.19 7941.83 7834.93 6426.64 5835.4 5777.27 5595.24 5376.6 5425.95 5315.39 5276.78
threshold=0 1 2 3 4 5 78.310015620000016 77.640004840000017 11.500000000000002 2.5000000000000004 6.5000000000000009 23.145394715000005 6.5000000000000009 5.5000000000000009 2.5000000000000004 6.5000000000000009 8.5000000000000018 27.466655495000001 4.5000000000000009 2.5000000000000004 4.5000000000000009 7.5000000000000009 6 6.5000000000000009 21.695405700000006 7.5000000000000009 8.5000000000000018 10.500000000000002 16.802198500000003 10.500000000000002
decision_type=1 1 1 1 1 1 2 2 10 8 10 2 8 10 10 10 8 2 8 10 10 10 1 10 2 10 10 10 2 10
left_child=2 4 3 15 18 22 10 9 12 -5 -4 -7 13 14 -9 -1 17 -14 19 20 21 -2 -3 -11 -6 -12 -25 -28 -8 -27
right_child=1 5 6 7 24 11 28 8 -10 23 25 -13 16 -15 -16 -17 -18 -19 -20 -21 -22 -23 -24 26 -26 29 27 -29 -30 -31
leaf_value=4.4583541247196967 0.38316654254089705 -0.77516021769998711 1.489194634963616 2.0419819196065268 -0.39000834164808706 -1.1860074307356296 0.92369516970000076 3.3201022453308107 3.5239238972847278 3.146400202455975 0.89331024045174101 -1.3325351048382847 2.1634319953620436 1.1276522108193103 2.3086856469804165 3.8295065767624799 2.5839629842416478 4.3649138854100151 0.52893182269033123 -0.052282204976560734 0.17602801838424056 1.2783199345184999 -1.0373104268228921 2.1771334994922986 -0.21648357348893127 1.8509965275463305 3.4681463667324617 2.4547096910476687 1.1806736279709187 0.90399015334745259
leaf_weight=346 55 809 1053 24 796 1217 398 25 26 294 113 3300 32 29 102 51 582 26 877 124 120 44 1203 33 1207 38 28 25 407 24
leaf_count=346 55 809 1053 24 796 1217 398 25 26 294 113 3300 32 29 102 51 582 26 877 124 120 44 1203 33 1207 38 28 25 407 24
internal_value=-0.00513368 -0.79387 2.09518 3.10573 -0.00492066 -1.18273 1.27717 2.69722 2.59051 2.98112 1.43412 -1.2902 2.56002 2.25122 2.50778 4.27001 2.63529 3.1503 0.451897 0.268107 0.449514 0.781012 -0.936258 3.04043 -0.284025 1.10273 2.67815 2.99011 1.05362 1.48441
internal_weight=13408 9752 3656 1623 3223 6529 2033 1226 822 404 1228 4517 796 156 127 397 640 58 1220 343 219 99 2012 380 2003 175 86 53 805 62
internal_count=13408 9752 3656 1623 3223 6529 2033 1226 822 404 1228 4517 796 156 127 397 640 58 1220 343 219 99 2012 380 2003 175 86 53 805 62
cat_boundaries=0 1 3 4 5 7 8 9
cat_threshold=1510162945 21006504 1 1208091136 131072 16779264 1 2147496964 2147487744
is_linear=0
shrinkage=0.05


Tree=27
num_leaves=31
num_cat=0
split_feature=3 2 2 2 2 3 3 2 3 3 3 3 2 2 2 2 2 2 5 3 7 2 2 6 6 6 6 6 6 4
split_gain=3.0578e+06 2.14918e+06 500034 1.15445e+06 1.08815e+06 1.0398e+06 375583 336427 210553 197576 145877 133647 135631 72579.2 67200.1 39782.3 19897.3 50679.2 18663.7 13057.2 12133.3 8954.22 12645.6 8423.22 17394.8 12700.5 9081.09 8220.77 8190.48 8153.88
threshold=79.490021120000009 28.559999615000006 18.681315975000004 20.043503950000005 20.783484620000007 76.850001380000023 88.473297075000019 28.024993510000005 79.084670935000005 76.185009745000016 87.904959675000015 74.228990945000007 27.466655495000001 29.495200925000002 19.535330830000003 15.121213050000001 23.755396240000007 25.726206175000005 4.5000000000000009 94.166618815000007 5.5000000000000009 32.48498699000001 30.520202960000002 8.5000000000000018 9.5000000000000018 4.5000000000000009 2.5000000000000004 7.5000000000000009 2.5000000000000004 2019.5000000000002
decision_type=2 2 2 2 2 2 2 2 2 2 2 2 2 2 2 2 2 2 8 2 8 2 2 8 8 10 10 8 8 10
left_child=1 2 5 -4 -5 15 10 11 23 -3 14 -6 28 -11 -2 -1 -16 -18 -14 -8 -20 22 -15 25 -25 26 -7 -10 -13 -28
right_child=6 9 3 4 7 8 19 -9 27 13 -12 12 18 21 16 -17 17 -19 20 -21 -22 -23 -24 24 -26 -27 29 -29 -30 -31
leaf_value=-0.43015127746685977 -1.1641119560792079 0.4040273571087501 4.1586916825633207 -1.0881878825134572 2.8320592750970386 0.79649957259496063 -1.2744729208299164 0.43027049987657789 1.9815329490810314 -0.17558730286404944 0.46634399299604373 0.80947350189089784 3.24597575342333 -0.76655840935683495 -0.25863277380520966 -1.1288753042173623 -1.012571857703235 -0.22814016663546802 1.8177526304474125 -0.96615826178819708 2.5320063847291974 -0.72546019601233214 -1.107245821587777 2.1311535679481248 1.1113545925927188 0.55598616819806035 1.8976482751152735 2.5161553144831013 1.4576187975961741 0.77652269083520642
leaf_weight=413 402 423 397 413 404 75 2874 403 93 396 394 52 74 404 773 402 403 421 77 390 261 405 836 44 842 164 55 317 778 23
leaf_count=413 402 423 397 413 404 75 2874 403 93 396 394 52 74 404 773 402 403 421 77 390 261 405 836 44 842 164 55 317 778 23
internal_value=-0.00494458 0.640125 1.20851 1.65662 1.25316 0.680859 -0.888794 1.72508 1.41636 -0.579459 -0.412984 2.0421 1.78514 -0.783288 -0.586298 -0.774798 -0.440849 -0.611788 2.52675 -1.23763 2.36929 -0.92958 -0.996248 1.08286 1.162 0.861672 1.18933 2.39489 1.41701 1.56706
internal_weight=13408 7751 5287 2859 2462 2428 5657 2049 1613 2464 2393 1646 1242 2041 1999 815 1597 824 412 3264 338 1645 1240 1203 886 317 153 410 830 78
internal_count=13408 7751 5287 2859 2462 2428 5657 2049 1613 2464 2393 1646 1242 2041 1999 815 1597 824 412 3264 338 1645 1240 1203 886 317 153 410 830 78
is_linear=0
shrinkage=0.05


Tree=28
num_leaves=31
num_cat=6
split_feature=0 0 0 0 0 0 2 5 6 5 2 6 6 6 6 5 5 6 4 2 5 6 6 6 5 6 2 6 6 5
split_gain=7.24792e+06 973902 960067 183905 134716 48327.9 19797.1 9558.34 22599 14786.1 8093.59 7601.96 15698.8 11462.2 8195.68 8135.06 7409.42 7391.91 7358.88 7035.17 8826.81 6942.69 6657.88 7704.64 6595.45 6386.4 6280.79 6148.94 9245.52 6386.8
threshold=0 1 2 3 4 5 20.783484620000007 7.5000000000000009 11.500000000000002 9.5000000000000018 22.174560175000003 8.5000000000000018 9.5000000000000018 4.5000000000000009 2.5000000000000004 6.5000000000000009 4.5000000000000009 2.5000000000000004 2019.5000000000002 27.466655495000001 4.5000000000000009 1.5000000000000002 10.500000000000002 11.500000000000002 4.5000000000000009 7.5000000000000009 23.145394715000005 1.5000000000000002 2.5000000000000004 5.5000000000000009
decision_type=1 1 1 1 1 1 2 10 10 10 2 8 8 10 10 10 10 8 10 2 8 10 10 10 8 8 2 10 10 8
left_child=2 4 3 25 27 -3 11 8 10 -9 24 13 16 14 15 -4 -13 21 -16 -12 -21 -8 -19 -24 -5 -1 -7 29 -29 -2
right_child=1 5 6 7 -6 26 17 9 -10 -11 19 12 -14 -15 18 -17 -18 22 -20 20 -22 -23 23 -25 -26 -27 -28 28 -30 -31
leaf_value=3.6028260715080034 1.3167113034621529 -0.84433594817105906 1.1472284932931265 1.8179945193231106 -0.25633255988292369 -1.0703716795270131 1.4177350127178689 1.5127078683330464 3.9939276616573332 2.4893097025342286 2.7330614905107264 1.4046104127946109 1.0557868625164573 0.52818685806606236 1.8027658291838387 0.062356611037695853 2.7036275000799272 1.4238833408217786 0.73769654035568244 2.9247228336684845 2.2896433034206609 0.25448572486639026 0.27473643613713133 1.4955887293443084 2.3794991880538059 4.066344937522139 -1.2032640662626788 -0.49413309089235358 0.33147459547884139 0.47090169968409584
leaf_weight=99 23 2012 48 64 2003 1217 23 65 25 96 342 23 842 164 55 27 21 726 23 68 280 29 28 24 286 298 3300 37 406 754
leaf_count=99 23 2012 48 64 2003 1217 23 65 25 96 342 23 842 164 55 27 21 726 23 68 280 29 28 24 286 298 3300 37 406 754
internal_value=-0.00469735 -0.716556 1.8909 2.80292 -0.0044409 -1.06754 1.15265 2.43424 2.50838 2.09503 2.47267 1.02872 1.1039 0.818588 1.12987 0.756675 2.0246 1.34616 1.48871 2.57201 2.41374 0.769 1.38474 0.838207 2.27682 3.85369 -1.16488 0.407837 0.262519 0.495939
internal_weight=13408 9752 3656 1623 3223 6529 2033 1226 1065 161 1040 1203 886 317 153 75 44 830 78 690 348 52 778 52 350 397 4517 1220 443 777
internal_count=13408 9752 3656 1623 3223 6529 2033 1226 1065 161 1040 1203 886 317 153 75 44 830 78 690 348 52 778 52 350 397 4517 1220 443 777
cat_boundaries=0 1 3 4 5 7 8
cat_threshold=1510162945 21006504 1 1208091136 131072 16779264 1 2147496964
is_linear=0
shrinkage=0.05


Tree=29
num_leaves=31
num_cat=0
split_feature=3 2 2 2 2 3 3 2 3 3 3 3 2 2 2 2 2 2 5 7 3 6 2 2 6 6 6 6 6 6
split_gain=2.49448e+06 1.74458e+06 408918 940016 885111 850144 306121 274073 171321 159583 119429 109014 110461 59423.6 54914.9 31635.5 16451 42200.3 15373.8 10807.9 10384.3 7981.21 7698.47 10776.8 7526.08 6963.14 6860.77 14168.2 10344.6 7396.6
threshold=79.490021120000009 28.559999615000006 18.681315975000004 20.043503950000005 20.783484620000007 76.850001380000023 88.473297075000019 28.024993510000005 79.084670935000005 76.185009745000016 87.904959675000015 74.228990945000007 27.466655495000001 29.495200925000002 19.535330830000003 15.121213050000001 23.755396240000007 25.726206175000005 4.5000000000000009 5.5000000000000009 94.166618815000007 2.5000000000000004 32.48498699000001 30.520202960000002 6.5000000000000009 7.5000000000000009 8.5000000000000018 9.5000000000000018 4.5000000000000009 2.5000000000000004
decision_type=2 2 2 2 2 2 2 2 2 2 2 2 2 2 2 2 2 2 8 8 2 8 2 2 10 8 8 8 10 10
left_child=1 2 5 -4 -5 15 10 11 26 -3 14 21 -13 -11 -2 -1 -16 -18 24 -20 -8 -6 23 -15 -14 -10 28 -28 29 -7
right_child=6 9 3 4 7 8 20 -9 25 13 -12 12 18 22 16 -17 17 -19 19 -21 -22 -23 -24 -25 -26 -27 27 -29 -30 -31
leaf_value=-0.39582707523920779 -1.0523877701356044 0.36320297679386099 3.7532192489362184 -0.98025989324648222 1.6723009278376897 0.71884087070822722 -1.1505860749100678 0.38833454893925057 1.7803554579775822 -0.15399133466334658 0.42239676925547531 1.2788534373962825 2.4008302226662637 -0.68601371064634609 -0.23288451302115881 -1.0189129376292823 -0.91972641838395575 -0.20391652872763807 1.6168885784876812 2.2910016027000872 -0.87563351832903347 2.6124517233037441 -0.64697038791797779 -1.0005217822544883 3.4107897605651467 2.2723873975055073 1.9233660549941387 1.0029975297917211 0.50177751657504754 1.414271575288895
leaf_weight=413 402 423 397 413 24 75 2874 403 93 396 394 830 35 404 773 402 403 421 77 261 390 380 405 836 39 317 44 842 164 78
leaf_count=413 402 423 397 413 24 75 2874 403 93 396 394 830 35 404 773 402 403 421 77 261 390 380 405 836 39 317 44 842 164 78
internal_value=-0.00450353 0.578126 1.09022 1.49545 1.13138 0.61306 -0.802799 1.55701 1.27811 -0.52068 -0.373236 1.84315 1.61107 -0.703865 -0.530054 -0.703165 -0.398571 -0.554003 2.28034 2.13743 -1.11773 2.5566 -0.836236 -0.898053 2.93311 2.16078 0.977282 1.0487 0.777659 1.07337
internal_weight=13408 7751 5287 2859 2462 2428 5657 2049 1613 2464 2393 1646 1242 2041 1999 815 1597 824 412 338 3264 404 1645 1240 74 410 1203 886 317 153
internal_count=13408 7751 5287 2859 2462 2428 5657 2049 1613 2464 2393 1646 1242 2041 1999 815 1597 824 412 338 3264 404 1645 1240 74 410 1203 886 317 153
is_linear=0
shrinkage=0.05


Tree=30
num_leaves=31
num_cat=6
split_feature=0 0 0 0 0 0 2 5 6 2 5 6 5 5 6 5 6 6 2 4 6 6 6 5 6 4 5 6 6 6
split_gain=5.83053e+06 890390 774064 116145 105416 39888.4 19365.1 13020.6 26882.5 12411.2 8011.85 7617.42 12822.6 10476.8 15239.4 9567.51 9538.64 17747 10384 9250.45 20769 8822.26 8807.11 7090.51 6924.66 13188.7 6534.53 6070.15 5877.52 5090.77
threshold=0 1 2 3 4 5 20.783484620000007 5.5000000000000009 11.500000000000002 22.174560175000003 10.500000000000002 4.5000000000000009 7.5000000000000009 8.5000000000000018 2.5000000000000004 11.500000000000002 6.5000000000000009 8.5000000000000018 28.024993510000005 2019.5000000000002 2.5000000000000004 2.5000000000000004 5.5000000000000009 5.5000000000000009 9.5000000000000018 2019.5000000000002 6.5000000000000009 6.5000000000000009 6.5000000000000009 2.5000000000000004
decision_type=1 1 1 1 1 1 2 10 10 2 10 10 10 8 10 10 10 10 2 10 10 8 10 10 10 10 10 10 10 10
left_child=1 4 3 11 -1 -4 26 8 9 -6 -9 13 16 19 -15 27 22 18 -18 21 -21 -2 -13 28 -19 -26 -3 -14 -5 -28
right_child=2 6 5 23 7 -7 -8 10 -10 -11 -12 12 15 14 -16 -17 17 24 -20 20 -22 -23 -24 -25 25 -27 29 -29 -30 -31
leaf_value=3.4478130216964269 -1.0566432845261362 0.92467161694084832 -0.75918250389886011 -0.23902819526275365 2.1001569617661242 -1.0512608016414844 1.1924884333531316 1.7301758690424482 4.040151474873225 2.4737703867399268 2.4042306991723872 0.85417076205385145 0.61811895478855483 0.32896602336391312 1.7273188042640688 1.0469128041163736 0.85235400199890143 -0.052984099728720528 2.266469651110032 1.5989053324609994 -0.58273608982563019 0.09406505573180414 -0.38904371570263591 -0.45260542086683792 0.24435160089106789 1.5212510167024076 -0.040292991035514411 -0.34274380500500023 0.03143152394391948 0.70912617901538288
leaf_weight=386 36 1044 2017 1457 337 4364 822 137 24 653 65 29 22 755 20 23 21 28 34 20 24 31 28 338 42 39 27 65 233 141
leaf_count=386 36 1044 2017 1457 337 4364 822 137 24 653 65 29 22 755 20 23 21 28 34 20 24 31 28 338 42 39 27 65 233 141
internal_value=0.00379609 1.70686 -0.640605 -0.0109959 2.59227 -0.960269 1.00024 2.29478 2.38668 2.34659 1.94707 0.373374 0.581101 0.299983 0.365053 0.139993 0.800657 0.994313 1.72653 -0.154331 0.408919 -0.524226 0.243469 -0.242356 0.624844 0.859155 0.878099 -0.099767 -0.20174 0.588684
internal_weight=13262 3636 9626 3245 1602 6381 2034 1216 1014 990 202 1217 331 886 775 110 221 164 55 111 44 67 57 2028 109 81 1212 87 1690 168
internal_count=13262 3636 9626 3245 1602 6381 2034 1216 1014 990 202 1217 331 886 775 110 221 164 55 111 44 67 57 2028 109 81 1212 87 1690 168
cat_boundaries=0 1 2 4 6 7 8
cat_threshold=1510162945 1208091136 21006504 1 16779264 1 131072 2147496964
is_linear=0
shrinkage=0.05


Tree=31
num_leaves=31
num_cat=7
split_feature=0 0 0 0 0 0 2 5 2 5 5 5 0 3 5 5 5 7 4 5 2 4 5 5 5 5 5 2 2 2
split_gain=5.26473e+06 804731 698812 104821 96240 35976.6 17477 11751.1 13214.2 7230.7 6399.18 5897.41 5266.29 4940.45 4669.75 4475.7 4645.93 8438 7402.46 5031.54 3639.13 3609.31 5398.54 3571.86 3403.96 3260.22 3705.58 3159.7 2946.97 4516.55
threshold=0 1 2 3 4 5 20.783484620000007 5.5000000000000009 22.174560175000003 10.500000000000002 5.5000000000000009 6.5000000000000009 6 92.300014405000027 1.5000000000000002 11.500000000000002 4.5000000000000009 5.5000000000000009 2019.5000000000002 10.500000000000002 27.216864540000003 2019.5000000000002 10.500000000000002 6.5000000000000009 9.5000000000000018 7.5000000000000009 11.500000000000002 21.695405700000006 13.835407430000002 16.802198500000003
decision_type=1 1 1 1 1 1 2 10 2 10 10 10 1 2 8 10 8 10 10 10 2 8 10 10 10 10 10 2 2 2
left_child=1 4 3 15 21 12 11 8 -6 -9 27 28 -4 20 -10 16 -2 18 19 -18 -7 22 23 -1 -13 -8 -27 -5 -3 -30
right_child=2 6 5 10 7 13 25 9 14 -11 -12 24 -14 -15 -16 -17 17 -19 -20 -21 -22 -23 -24 -25 -26 26 -28 -29 29 -31
leaf_value=3.2427578613493178 0.54983669809245195 0.99622294627664487 -0.58586954494255516 -0.27621724684942306 2.0154408074027406 -0.92579689512881669 1.1709699576512769 1.6436670683759407 2.9959820291688368 2.2840191722833194 -0.42997514849319263 0.29618379364550956 -0.80554527752344907 -1.0719356136370493 2.3676010489393846 0.92321811953888222 0.31214676190879387 1.1058246847121946 -0.5645093846779603 -0.36869040232683936 -1.0533902601313623 3.4594283581420942 3.8159512693231754 2.5933909726142885 0.75180293588908675 0.72413867016633349 1.4667189390886399 -0.13638002117330286 0.69004568700613678 0.9455261975762318
leaf_weight=45 218 352 803 668 344 2017 717 137 31 65 338 71 1214 1574 639 34 880 31 26 28 773 279 22 40 97 84 21 1022 344 348
leaf_count=45 218 352 803 668 344 2017 717 137 31 65 338 71 1214 1574 639 34 880 31 26 28 773 279 22 40 97 84 21 1022 344 348
internal_value=0.00366802 1.62199 -0.608669 -0.0104461 2.46372 -0.912397 0.950224 2.18004 2.26734 1.84972 -0.230238 0.834194 -0.721411 -0.998818 2.39668 0.354705 0.341364 0.294269 0.267333 0.291152 -0.961148 3.27978 3.11786 2.93717 0.55925 1.13286 0.872655 -0.191653 0.878438 0.818524
internal_weight=13262 3636 9626 3245 1602 6381 2034 1216 1014 202 2028 1212 2017 4364 670 1217 1183 965 934 908 2790 386 107 85 168 822 105 1690 1044 692
internal_count=13262 3636 9626 3245 1602 6381 2034 1216 1014 202 2028 1212 2017 4364 670 1217 1183 965 934 908 2790 386 107 85 168 822 105 1690 1044 692
cat_boundaries=0 1 2 4 6 7 8 9
cat_threshold=1510162945 1208091136 21006504 1 16779264 1 131072 2147496964 2147487744
is_linear=0
shrinkage=0.05


Tree=32
num_leaves=31
num_cat=6
split_feature=0 0 0 0 0 0 2 5 6 2 5 6 5 6 5 4 6 6 6 2 6 6 6 6 6 4 5 6 5 6
split_gain=4.75174e+06 726270 630838 94601.1 86856.6 32367.2 15773 10605.4 24144.1 10036.6 6718.91 6631.19 11442.8 9846.47 14495.4 20521.4 11403.6 8568.3 16104.2 9375.75 8480.6 12120.8 7928.71 7336.5 6244.37 11960.4 5775.26 5376.12 5322.41 5166.23
threshold=0 1 2 3 4 5 20.783484620000007 5.5000000000000009 11.500000000000002 22.174560175000003 11.500000000000002 4.5000000000000009 7.5000000000000009 3.5000000000000004 8.5000000000000018 2019.5000000000002 2.5000000000000004 6.5000000000000009 8.5000000000000018 28.024993510000005 6.5000000000000009 7.5000000000000009 5.5000000000000009 10.500000000000002 9.5000000000000018 2019.5000000000002 5.5000000000000009 11.500000000000002 6.5000000000000009 2.5000000000000004
decision_type=1 1 1 1 1 1 2 10 10 2 10 10 10 10 10 8 8 10 10 2 10 10 10 10 10 10 10 10 10 10
left_child=1 4 3 11 -1 -4 28 8 9 -6 29 13 17 14 15 -2 -17 22 19 -19 -14 -22 -13 -23 -20 -26 27 -5 -3 -9
right_child=2 6 5 26 7 -7 -8 10 -10 -11 -12 12 20 -15 -16 16 -18 18 24 -21 21 23 -24 -25 25 -27 -28 -29 -30 -31
leaf_value=3.1157868620121119 -0.69021082801638922 0.83451612957769294 -0.68568332235585694 -0.19541246112682831 1.8943770581077044 -0.94887703584654448 1.076220786072758 1.0578057184815408 3.7209721088409426 2.2303546361643738 2.4098093524123687 0.78945627387227679 0.88373161719905013 -0.54153650038772161 1.3300819231705232 1.5053975450992585 0.29553657477240891 0.78849082049869357 -0.073986640146800453 2.1321996997384463 -1.0567284132838251 0.69988798134856767 -0.39013243317604068 -0.45906478762626651 0.20671397461777641 1.4227014417831716 -0.40847639666164853 0.41399896426780808 0.53128714062096116 1.7634157787818108
leaf_weight=386 53 1044 2017 1653 337 4364 822 32 24 653 33 29 27 36 33 20 744 21 28 34 25 36 28 22 42 39 338 37 168 137
leaf_count=386 53 1044 2017 1653 337 4364 822 32 24 653 33 29 27 36 33 20 744 21 28 34 25 36 28 22 42 39 338 37 168 137
internal_value=0.00343216 1.54089 -0.578307 -0.00992383 2.34054 -0.866886 0.902713 2.07104 2.15397 2.11599 1.75723 0.33697 0.53069 0.268401 0.302704 0.261207 0.327208 0.738097 0.921639 1.61915 0.113992 -0.136406 0.210009 0.260285 0.569685 0.792189 -0.218726 -0.18207 0.792484 1.62981
internal_weight=13262 3636 9626 3245 1602 6381 2034 1216 1014 990 202 1217 331 886 850 817 764 221 164 55 110 83 57 58 109 81 2028 1690 1212 169
internal_count=13262 3636 9626 3245 1602 6381 2034 1216 1014 990 202 1217 331 886 850 817 764 221 164 55 110 83 57 58 109 81 2028 1690 1212 169
cat_boundaries=0 1 2 4 6 7 8
cat_threshold=1510162945 1208091136 21006504 1 16779264 1 131072 2147496964
is_linear=0
shrinkage=0.05


Tree=33
num_leaves=31
num_cat=0
split_feature=3 2 2 2 2 3 2 3 3 3 3 2 2 2 2 2 2 5 2 2 7 7 5 3 6 7 5 6 6 6
split_gain=1.64844e+06 1.1238e+06 289742 583657 579569 549879 204407 203469 136671 112689 78778.6 76926.4 38095.4 34779.3 70618.5 29532.6 19851.6 14950.3 14481.8 26984.6 9815.54 8450.29 7585.37 7378.5 6686.66 7546.9 6268.44 5789.35 5770.72 5613.74
threshold=79.490021120000009 28.559999615000006 18.681315975000004 20.043503950000005 20.783484620000007 76.850001380000023 28.024993510000005 88.473297075000019 79.084670935000005 76.185009745000016 87.904959675000015 22.174560175000003 19.535330830000003 27.466655495000001 26.117706830000007 29.495200925000002 15.121213050000001 3.5000000000000004 23.755396240000007 25.726206175000005 1.0000000180025095e-35 5.5000000000000009 4.5000000000000009 94.166618815000007 2.5000000000000004 1.5000000000000002 5.5000000000000009 8.5000000000000018 6.5000000000000009 2.5000000000000004
decision_type=2 2 2 2 2 2 2 2 2 2 2 2 2 2 2 2 2 8 2 2 10 8 10 2 10 10 10 10 10 8
left_child=1 2 5 -4 -5 16 11 10 -7 20 12 -6 -2 14 29 26 -1 -15 -14 -20 -3 22 -19 -9 -22 -26 -11 28 -27 -13
right_child=7 9 3 4 6 8 -8 23 -10 15 -12 13 18 17 -16 -17 -18 21 19 -21 24 -23 -24 -25 25 27 -28 -29 -30 -31
leaf_value=-0.32706603497439829 -0.85805677115199086 0.15977647831966876 3.0407174028929109 -0.78670179333852897 0.95337211770382124 0.75286016449141668 0.29199912792076255 -0.94113006028073998 1.805103624334496 -0.10646533948585085 0.33611153755569251 1.363905493555398 -0.17105477134139732 2.9086994706724703 1.0921226265077413 -0.6698078045039364 -0.82152649877089134 2.449662237763405 -0.75871395571478484 -0.18364746811913282 -0.12771902409466832 2.1433638107433199 1.3489569960989887 -0.71237694870422386 1.6575709673491392 0.55719760075995806 -0.65679209711121733 0.14932340791350918 1.5606440958769427 2.0870425384408899
leaf_weight=409 415 264 386 402 413 1212 409 2766 414 341 401 29 807 52 409 1585 403 20 406 410 22 269 72 404 22 38 61 38 23 360
leaf_count=409 415 264 386 402 413 1212 409 2766 414 341 401 29 807 52 409 1585 403 20 406 410 22 269 72 404 22 38 61 38 23 360
internal_value=0.0033164 0.480548 0.889346 1.23436 0.948016 0.490129 1.29103 -0.647826 1.02077 -0.417475 -0.304505 1.54264 -0.430554 1.7436 1.55084 -0.57273 -0.572469 2.11607 -0.321241 -0.469771 0.340492 2.00189 1.58824 -0.911977 0.674121 0.819911 -0.189973 0.633764 0.935546 2.03313
internal_weight=13262 7653 5259 2821 2435 2438 2033 5609 1626 2394 2439 1624 2038 1211 798 1987 812 413 1623 816 407 361 92 3170 143 121 402 99 61 389
internal_count=13262 7653 5259 2821 2435 2438 2033 5609 1626 2394 2439 1624 2038 1211 798 1987 812 413 1623 816 407 361 92 3170 143 121 402 99 61 389
is_linear=0
shrinkage=0.05


Tree=34
num_leaves=31
num_cat=7
split_feature=0 0 0 0 0 0 2 5 6 2 6 6 6 6 6 5 6 6 6 6 2 6 6 5 7 7 0 5 6 5
split_gain=3.8723e+06 592401 513983 77053.2 71559.7 27145.5 12847.2 8813.88 21604.1 8111.6 6645.21 8529.25 5670.94 7088.96 10626 12730.6 8604.85 10627.3 7696.4 13933 8019.29 7056.75 6513.65 5736.01 10175.5 9738 5263.84 4968.75 5127.31 4846.36
threshold=0 1 2 3 4 5 20.783484620000007 5.5000000000000009 11.500000000000002 22.174560175000003 10.500000000000002 2.5000000000000004 2.5000000000000004 3.5000000000000004 4.5000000000000009 7.5000000000000009 5.5000000000000009 7.5000000000000009 6.5000000000000009 8.5000000000000018 28.024993510000005 5.5000000000000009 10.500000000000002 3.5000000000000004 2.5000000000000004 3.5000000000000004 6 5.5000000000000009 6.5000000000000009 5.5000000000000009
decision_type=1 1 1 1 1 1 2 10 10 2 10 10 8 8 8 8 10 10 10 10 2 10 10 10 10 10 1 10 10 10
left_child=1 4 3 12 -1 26 29 8 9 -6 11 -9 -2 -14 -15 18 -17 -18 21 20 -20 -16 -19 24 -21 -25 -4 28 -5 -3
right_child=2 6 5 27 7 -7 -8 10 -10 -11 -12 -13 13 14 15 16 17 22 19 23 -22 -23 -24 25 -26 -27 -28 -29 -30 -31
leaf_value=2.8157350245524539 -0.10583181710770498 0.75926521713620643 -0.48999546148996398 -0.19820044360548009 1.7094030176984418 -0.85741984283864159 0.97128927212507632 1.0385733606195764 3.4268456916014354 2.0114464837321826 0.88243995349982696 1.8865614097427441 0.99732437913234429 -0.53347395542595122 0.72390176078368884 0.30833248210607728 -0.85895812463115995 0.63975696464379628 0.73226070006688437 1.6225446658134459 1.9749722130158369 -0.38893616492194788 -0.45227078714153984 -0.59644007732470827 0.30179553065981185 0.81358669579029097 -0.69619920393878143 -0.37337639975036391 0.054409385544084046 0.48826900868189665
leaf_weight=386 78 1015 803 1457 337 4364 822 38 24 653 29 135 39 36 29 748 37 36 21 25 34 28 22 24 35 25 1214 338 233 197
leaf_count=386 78 1015 803 1457 337 4364 822 38 24 653 29 135 39 36 29 748 37 36 21 25 34 28 22 24 35 25 1214 338 233 197
internal_value=0.00315057 1.39106 -0.522003 -0.00895625 2.11325 -0.782486 0.814698 1.86911 1.94456 1.90863 1.58288 1.7003 0.304115 0.334859 0.311371 0.339956 0.251403 -0.196844 0.677742 0.851696 1.50048 0.177245 0.22554 0.524326 0.852108 0.122961 -0.616929 -0.1974 -0.163373 0.715217
internal_weight=13262 3636 9626 3245 1602 6381 2034 1216 1014 990 202 173 1217 1139 1100 1064 843 95 221 164 55 57 58 109 60 49 2017 2028 1690 1212
internal_count=13262 3636 9626 3245 1602 6381 2034 1216 1014 990 202 173 1217 1139 1100 1064 843 95 221 164 55 57 58 109 60 49 2017 2028 1690 1212
cat_boundaries=0 1 2 4 6 7 8 9
cat_threshold=1510162945 1208091136 21006504 1 16779264 1 131072 2147496964 2147487744
is_linear=0
shrinkage=0.05


Tree=35
num_leaves=31
num_cat=7
split_feature=0 0 0 0 0 0 2 5 6 5 0 5 6 6 6 6 2 6 6 6 6 6 6 6 6 5 6 7 5 6
split_gain=3.48423e+06 472639 450189 85636.9 68388.5 25375.1 15020.7 7391.48 7481.71 6671 6584.49 6431.44 6175.47 6746.06 6771.62 5618.8 9700.44 6006.49 5740.49 5477.91 4927.4 4341.9 9063 6230.73 5854.11 5518.9 4254.86 4068.78 4316.73 7964.72
threshold=0 1 2 3 4 5 20.783484620000007 11.500000000000002 11.500000000000002 5.5000000000000009 6 9.5000000000000018 10.500000000000002 2.5000000000000004 1.5000000000000002 2.5000000000000004 27.466655495000001 10.500000000000002 1.5000000000000002 3.5000000000000004 11.500000000000002 8.5000000000000018 9.5000000000000018 4.5000000000000009 2.5000000000000004 8.5000000000000018 6.5000000000000009 4.5000000000000009 4.5000000000000009 2.5000000000000004
decision_type=1 1 1 1 1 1 2 10 10 10 1 10 10 8 10 8 2 10 10 8 10 8 8 10 10 10 10 10 10 10
left_child=2 4 3 9 27 10 21 8 15 -1 -3 -11 13 14 -8 16 18 -17 -5 -15 -14 23 -23 24 25 -4 -25 28 -2 -30
right_child=1 5 6 7 -6 -7 12 -9 -10 11 -12 -13 20 19 -16 17 -18 -19 -20 -21 -22 22 -24 26 -26 -27 -28 -29 29 -31
leaf_value=2.8100612338104134 0.30713402331617068 -0.46339365517054215 0.71126089058205733 1.4274875154862039 -0.18076193736823409 -0.82614077076909587 0.99288400901215423 2.4882407831734628 2.4003718878541673 1.8448823191989694 -0.67249349796608071 2.793303190578114 6.1028663601194109e-05 1.7532614796249957 -0.15166194106762609 1.7109558028803722 2.1108422419299249 1.0708442746514553 0.40433581491996506 1.0268428169196453 1.0000002579255538 1.5106901945056102 0.72110174428425644 0.0463082904946059 1.0797216166987231 -0.22852455150513423 0.56020998826956958 0.54289147487701217 -0.78953898262977606 0.17176828240104117
leaf_weight=335 879 809 61 26 2029 4056 28 29 35 39 1608 33 28 27 24 1030 23 38 29 669 22 38 833 75 76 21 87 146 25 156
leaf_count=335 879 809 61 26 2029 4056 28 29 35 39 1608 33 28 27 24 1030 23 38 29 669 22 38 833 75 76 21 87 146 25 156
internal_value=-0.00492314 -0.49794 1.32009 1.94348 -0.00378529 -0.744517 0.806103 1.68569 1.68025 2.65108 -0.604703 2.27958 0.978018 1.01398 0.464632 1.65826 1.24859 1.68818 0.888008 1.05502 0.440034 0.697684 0.75555 0.540182 0.763587 0.470584 0.322293 0.293002 0.261347 0.038991
internal_weight=13314 9708 3606 1617 3235 6473 1989 1210 1181 407 2417 72 798 748 52 1146 78 1068 55 696 50 1191 871 320 158 82 162 1206 1060 181
